{
    "BrainSettings": {
        "ActivationFuncFinal": "MySigmoidFunc",
        "ActivationFuncGeneral": "MySigmoidFunc",
        "IsXavier": true,
        "Topology": [
            11,
            36,
            36,
            2
        ]
    },
    "Layers": [
        {
            "Neurons": [
                {
                    "InputBias": -1.623375437472661,
                    "Weights": [
                        -0.760660780089682,
                        -0.31571404675569964,
                        -0.08263608759483854,
                        -0.7366324121183828,
                        -8.164661804210896,
                        0.3267594785260589,
                        -0.212381660287679,
                        -0.2154919126413468,
                        3.1630754134490386,
                        -0.19841204732864387,
                        -0.05889632108197057,
                        0.21575646204930454,
                        -5.655215110167437,
                        -2.740741975855054,
                        -0.06273975035589863,
                        0.2747699240828748,
                        0.33494865076074165,
                        0.04704615513645677,
                        -0.01493675075436618,
                        -2.5852653678187436,
                        0.14990963957843606,
                        -7.990956831978513,
                        0.34724517235480656,
                        -0.16249795750663282,
                        -0.3113606667336415,
                        -5.559984628715841,
                        -7.365908981746635,
                        -5.670888214093715,
                        0.07981504763812497,
                        0.184832471193208,
                        -0.192614694292179,
                        -0.24440787588678856,
                        2.612019719470915,
                        0.4152981452284247,
                        3.0866490085550904,
                        0.1694610291426505
                    ],
                    "Weights.size": 36
                },
                {
                    "InputBias": -2.968409486894945,
                    "Weights": [
                        -0.25396937844848405,
                        6.303517083988693,
                        -3.127211012707009,
                        -0.07831486092166212,
                        2.1670123885342822,
                        0.01212365856708969,
                        -0.20866368158741297,
                        -0.3034408642323452,
                        0.08699695488827974,
                        0.09405221009683351,
                        -0.22930362248157837,
                        0.12210816043881251,
                        -0.30678549807208777,
                        0.22516079174046189,
                        4.497601963620453,
                        0.25116062695597774,
                        -0.23747617828755402,
                        0.14079616269778578,
                        -2.243642131961269,
                        -0.16360753388135038,
                        0.11087611888423465,
                        -5.837484401319225,
                        -0.3326589735939504,
                        -0.27641176546316576,
                        -2.4246826813025013,
                        -4.388185289029463,
                        -3.01556428640021,
                        -7.576694760121623,
                        -0.05201736471352725,
                        8.17227080726111,
                        0.06578335498283505,
                        0.27613077574372924,
                        6.764667603589009,
                        -0.9693450146457533,
                        0.5222903550998976,
                        -1.9463663481672158
                    ],
                    "Weights.size": 36
                },
                {
                    "InputBias": -4.348208476619973,
                    "Weights": [
                        0.2309157751650236,
                        0.2669223354314475,
                        0.35631356977871687,
                        -0.18405907233858176,
                        3.120564035161963,
                        -0.3373387471517941,
                        -2.030391326892268,
                        4.566079342412223,
                        0.24283943411540787,
                        -5.495222807626879,
                        0.1193589738175514,
                        4.396677191951991,
                        -4.630934666446611,
                        4.473515737655948,
                        5.927591693682544,
                        0.21713288117501572,
                        0.03342349670102013,
                        8.525961053787647,
                        -0.0047551635636238765,
                        0.21707303100684538,
                        2.0011487182934764,
                        -0.35502706529337463,
                        4.093409688668495,
                        0.14986915375427723,
                        0.03984735603959699,
                        -6.533245547466941,
                        0.042661814853357516,
                        3.610945882333973,
                        4.903800658203188,
                        -0.3279980979906765,
                        2.342797134321162,
                        0.01201637344625972,
                        0.07089503847429185,
                        -0.20959253270317238,
                        -8.319791499425676,
                        0.24196511103128404
                    ],
                    "Weights.size": 36
                },
                {
                    "InputBias": -0.6755105845543785,
                    "Weights": [
                        0.42540357157220954,
                        0.23017063029254292,
                        -5.257062290917765,
                        1.88855391230399,
                        -3.1323422440647786,
                        3.158802464906235,
                        -0.2840446471172991,
                        -0.25893990325057986,
                        11.085528472236312,
                        0.13101638521404957,
                        10.97204858089517,
                        8.176889053343622,
                        -0.0012687602157594458,
                        3.4974836610001163,
                        -2.3106837054751885,
                        -3.607040263913072,
                        0.0761806791762561,
                        0.30207066257144854,
                        -7.914651808649252,
                        2.258835562106192,
                        -6.431690950907909,
                        4.62360635690035,
                        -0.30572323420947034,
                        8.018839436668825,
                        0.1810701675200742,
                        6.627196692932716,
                        0.06575773810465635,
                        0.1438485670420212,
                        -0.018798457173240912,
                        1.675890460162389,
                        -0.7497126648353262,
                        0.034983896849208884,
                        0.12234049431890104,
                        -7.359780355571191,
                        0.07022420653974243,
                        -0.13181964417961753
                    ],
                    "Weights.size": 36
                },
                {
                    "InputBias": -0.1615476536588641,
                    "Weights": [
                        0.05837343664161887,
                        0.30762948291744674,
                        -0.1424239553393977,
                        -0.32096451470522136,
                        0.2385334469891257,
                        -0.2873348252152622,
                        0.21646270086964992,
                        0.15525315701461018,
                        0.32414590521431785,
                        -0.18543331601517368,
                        -0.10772404607854605,
                        -0.35158251840156285,
                        -0.31282157430415614,
                        0.1769732953793547,
                        -0.13324162127233596,
                        0.35468722975724953,
                        0.0938128112839558,
                        0.03522812011169679,
                        0.02040776430166308,
                        0.3437047628714598,
                        0.22551942679820858,
                        -0.18014649154805987,
                        -0.23247780720833305,
                        -0.23170982347582883,
                        0.13709778617184798,
                        0.2696824300018765,
                        -0.22831216829263032,
                        0.30004459398061967,
                        -0.15600975424237437,
                        -0.1460768571278228,
                        -0.16037275079955424,
                        0.2906275251960304,
                        -0.28292770464212064,
                        0.042001373023462296,
                        -0.15392989564299034,
                        0.2438065361970645
                    ],
                    "Weights.size": 36
                },
                {
                    "InputBias": -0.4631776573697114,
                    "Weights": [
                        0.23500868006043252,
                        -0.11690757530498294,
                        -0.295359576559851,
                        -0.2658449695496643,
                        -0.33485809451698323,
                        0.17144807276919471,
                        -0.176479119602476,
                        -0.19100469625854846,
                        0.09375245695982504,
                        0.21661372875057394,
                        0.21925504978360788,
                        0.3093310586890903,
                        -0.27405074750754593,
                        -0.07228136976737876,
                        0.004925617272290517,
                        -0.15414757707674823,
                        0.11393373923584821,
                        -0.015689023165594174,
                        0.2909583731996075,
                        0.010474482820093056,
                        -0.021851274561915435,
                        0.164785573112335,
                        -0.30048710442749405,
                        0.32517261440019096,
                        0.12447378949615584,
                        0.0069804558209565215,
                        -0.18427889964250643,
                        -0.3208314731875412,
                        -0.305979533530066,
                        0.3192751959000467,
                        -0.2511601981512479,
                        0.1078703302711091,
                        0.30912171521386245,
                        -0.23254728173160938,
                        -0.1524506254764666,
                        -0.15395113868978846
                    ],
                    "Weights.size": 36
                },
                {
                    "InputBias": 0.5967082518094424,
                    "Weights": [
                        0.22255324078855165,
                        -0.23760522867500228,
                        0.3147084261684704,
                        -0.15442340132420215,
                        -0.324658284147221,
                        -0.2752468997336673,
                        0.01631102171647758,
                        -0.05446044501223646,
                        -0.2081387740425749,
                        -0.1972480993294685,
                        0.23361740524082353,
                        0.029186785753466837,
                        -0.21411816621113405,
                        -0.24907654701063825,
                        -0.02446109729146645,
                        -0.16205510041859847,
                        -0.2973879185274133,
                        0.025727185290914445,
                        0.29226771426758136,
                        -0.2167276869350011,
                        0.01732088589338987,
                        0.2857559195564341,
                        0.1450782096656209,
                        0.16934963454705387,
                        0.07377912971196365,
                        0.3330657585475354,
                        0.05967019099871079,
                        0.2524518383931059,
                        0.15850219795869191,
                        0.2180228881712425,
                        -0.047664857164228414,
                        0.15948762577803566,
                        0.07149976936377939,
                        -0.3299195955729093,
                        -0.0535141056183423,
                        -0.09723650051375399
                    ],
                    "Weights.size": 36
                },
                {
                    "InputBias": 0,
                    "Weights": [
                        -0.10490939437058189,
                        0.2384767359917752,
                        -0.0021944599482168203,
                        0.29509834205957575,
                        0.09841241411395363,
                        -0.01399710896711398,
                        0.3045116497318935,
                        0.23144475177980683,
                        -0.28628869388703226,
                        -0.13035627551232792,
                        0.05544510990937107,
                        0.3453210684106429,
                        -0.05921258040441457,
                        -0.22793950882753447,
                        -0.11321883180425082,
                        0.04532652233844292,
                        -0.1278354423046553,
                        -0.11612425093253062,
                        -0.14149967448435347,
                        -0.030778602652140552,
                        0.1863124753687222,
                        0.10003800803294088,
                        0.20147111778053173,
                        -0.31241992167462224,
                        0.002521124611525205,
                        0.18882661244094656,
                        0.28693117043481453,
                        0.34592403926055026,
                        0.186475877157682,
                        0.35143748194741875,
                        0.26569716625484907,
                        -0.1840904432353114,
                        -0.22248606037953997,
                        0.29679316071640616,
                        0.26907151699124465,
                        0.1343674495093083
                    ],
                    "Weights.size": 36
                },
                {
                    "InputBias": -0.379605938416971,
                    "Weights": [
                        -0.14820781743243294,
                        -0.34846439465550744,
                        0.2855198857137063,
                        -0.2996358061994508,
                        -0.07337196989405498,
                        0.33071713280269033,
                        -0.15068409166129418,
                        0.21648956903963634,
                        1.1508434767070959,
                        -0.2524901773041457,
                        0.15386218264422424,
                        0.03269689249754776,
                        -0.07659720526105701,
                        -0.09219379969677993,
                        1.01908074674057,
                        0.3436224473743431,
                        0.10000155708617109,
                        -0.19317817194846945,
                        -0.003991415221542727,
                        -0.24712257559601658,
                        0.0796811926662484,
                        0.27281027391460044,
                        -0.3098875553002232,
                        0.1794881888933469,
                        -1.231692565655114,
                        -1.172369899723126,
                        0.2763210880112975,
                        0.263393782318173,
                        0.34905697672470726,
                        -0.017487873318739244,
                        0.1108462481526597,
                        -0.35399262673647375,
                        -0.26920925964442544,
                        -0.5752023472081202,
                        -0.32943322647376305,
                        -0.00404672611471435
                    ],
                    "Weights.size": 36
                },
                {
                    "InputBias": -3.722794991062145,
                    "Weights": [
                        -0.8985016601299328,
                        -7.760650469958871,
                        0.08963018531520528,
                        -1.6352315913711108,
                        0.061903461788832215,
                        -7.738621219403952,
                        -0.025416418515842087,
                        -0.11027174382962521,
                        7.3947102921496235,
                        -0.25979288460847333,
                        -1.5777715573506303,
                        2.365110600713011,
                        0.3254400552346596,
                        6.108925496051798,
                        -5.3899978573262555,
                        0.03834786113533922,
                        -4.498216058948173,
                        -0.10365980133152286,
                        -0.050321135018271124,
                        1.9454576496263378,
                        0.10389143644669957,
                        -0.09043932511444741,
                        -0.34344900295617614,
                        -0.10256419712728027,
                        11.519504090702618,
                        2.186684301524655,
                        4.412002265013094,
                        0.35195409813189127,
                        5.24948985670917,
                        1.3971059716956504,
                        0.33855188448162055,
                        0.059162230865892396,
                        6.03273465109813,
                        -8.93239743991615,
                        -0.054069221799405764,
                        -0.04155565476779394
                    ],
                    "Weights.size": 36
                },
                {
                    "InputBias": 6.565504929900002,
                    "Weights": [
                        3.4166833647736046,
                        -1.1844931955056621,
                        -3.615121513488433,
                        -5.422221732350544,
                        -5.7108550602367485,
                        -2.166009176401312,
                        0.21168619618714613,
                        -4.598479988838554,
                        -5.970001485970906,
                        0.11281844836970789,
                        0.16981960447796607,
                        5.375655446692747,
                        -0.022068065463887065,
                        -0.21598461125286586,
                        -5.691970823287334,
                        0.03046914446540927,
                        0.0021668496091242773,
                        3.078795936592022,
                        2.5119033969829556,
                        0.27713478223455046,
                        0.05136848734466448,
                        4.081333619416024,
                        -1.173178909514029,
                        -1.165675026155975,
                        1.8753510134879474,
                        -1.83345184968561,
                        1.8810508399036896,
                        0.13529575425272972,
                        -0.12439714600988822,
                        0.16434219860734545,
                        0.18806047011033933,
                        3.748193528162159,
                        0.11345013110955832,
                        -0.3171100066255689,
                        0.32762294061153463,
                        -4.212780475198787
                    ],
                    "Weights.size": 36
                }
            ],
            "Neurons.size": 11
        },
        {
            "Neurons": [
                {
                    "InputBias": 0.002422664168828397,
                    "Weights": [
                        0.2179661833124723,
                        0.22265208854258556,
                        0.05186841812685167,
                        0.254438008257558,
                        -0.1328651541219493,
                        -0.022673208044334536,
                        -0.15914712630979694,
                        -0.047676840071807,
                        -0.22096033504179075,
                        0.014682135204498903,
                        -0.118399836315877,
                        0.24452394508527375,
                        0.13093791478073163,
                        -0.20260866737692118,
                        -0.07421003654862965,
                        0.025386520908389443,
                        -0.21049663388055576,
                        0.14287127218365475,
                        0.1991644222224776,
                        -0.2545383129162342,
                        0.2556815263959703,
                        0.28420796550190086,
                        -0.24832591280181698,
                        0.2575693002483689,
                        0.2886004990625012,
                        0.1677619064001113,
                        -0.09547645327328858,
                        -0.10253550156954941,
                        -0.057557674677083476,
                        -0.021605519309828236,
                        0.0073377598756810825,
                        0.007218438450073361,
                        0.098229246188893,
                        -0.24958117398904434,
                        -0.25446620154017585,
                        0.23367552395837765
                    ],
                    "Weights.size": 36
                },
                {
                    "InputBias": -0.6511123026638996,
                    "Weights": [
                        -0.27390445046056794,
                        0.12784323356672495,
                        -0.26201403355261993,
                        0.10532295311233236,
                        0.1629729423860754,
                        -0.2673052720097739,
                        0.1927056995021887,
                        0.13217218837387013,
                        -0.2384019468723286,
                        0.10371020671304115,
                        -0.16429444241434754,
                        0.017672750745130306,
                        -0.2605256823148712,
                        -0.15775057415694632,
                        -0.11702705069434738,
                        -0.17399458533629814,
                        -0.2751410116388289,
                        0.28193320396533395,
                        0.1774492728325721,
                        0.04381917754367337,
                        0.11447043165970372,
                        0.15850613623938886,
                        0.08218295966695799,
                        0.02713292619828056,
                        0.2771796515690349,
                        0.029620420055431806,
                        0.10642358760763404,
                        0.012986945638222225,
                        0.23717622465318955,
                        0.2051408448718341,
                        -0.2879592229183803,
                        0.06290749654086492,
                        0.16112517815600003,
                        0.030085331333989995,
                        0.24592472175950497,
                        -0.2817601047996104
                    ],
                    "Weights.size": 36
                },
                {
                    "InputBias": 1.4738558128047528,
                    "Weights": [
                        -0.029309415072999445,
                        0.1786778700280911,
                        2.870343965068494,
                        0.27895254257098745,
                        1.415842039027253,
                        0.046447520044285984,
                        0.1141487033782988,
                        0.030721724922906535,
                        -0.47374587654775757,
                        2.621161674923736,
                        1.4710485134815448,
                        2.7318532308820225,
                        0.11680193488944579,
                        -0.28433384763770964,
                        -0.6780822466011267,
                        -2.543619133284212,
                        -3.8677535797130935,
                        -0.10968164908431052,
                        0.019302818231982766,
                        3.589269150733835,
                        -0.8029591217203681,
                        0.7538674914467904,
                        0.22083588056937664,
                        3.0588225130491704,
                        1.6742636252024357,
                        -3.312494967655903,
                        -0.12316214745029111,
                        -0.1346072241908026,
                        -0.8969650438691258,
                        -3.507188354069815,
                        -0.04726027618424583,
                        0.16563897241065945,
                        -0.2382820608640476,
                        0.15015211150006325,
                        -0.12836633341404405,
                        -1.4812638565765173
                    ],
                    "Weights.size": 36
                },
                {
                    "InputBias": 0,
                    "Weights": [
                        0.13121339087553124,
                        -0.23473861071175148,
                        0.1082910741739922,
                        0.23068919616133932,
                        -0.20527121384774516,
                        0.1864649684667274,
                        -0.03233615192566863,
                        -0.12562352399686386,
                        0.04962165313278816,
                        0.07335446348823521,
                        -0.22080536276300006,
                        -0.23919877708167073,
                        0.06443604432234407,
                        0.025536776805297146,
                        -0.2550521845455734,
                        -0.09093627694646411,
                        -0.0411118804815612,
                        0.10193790234948641,
                        -0.2753684423456393,
                        0.10447855882349788,
                        0.08290010497128197,
                        0.04871878539837399,
                        0.11396475953687568,
                        -0.004933080930025313,
                        0.07087815777858752,
                        0.07583099551717087,
                        -0.12367578662435588,
                        0.2726695669970548,
                        0.11445228218365794,
                        0.12694401687633733,
                        -0.13376445320665215,
                        0.14651994994555378,
                        0.2658082741344191,
                        0.2700368840129771,
                        0.1723775659668199,
                        -0.09100883985187327
                    ],
                    "Weights.size": 36
                },
                {
                    "InputBias": -2.3102686313537673,
                    "Weights": [
                        0.1642296538494375,
                        -0.19919399149540623,
                        0.028143881523305103,
                        0.01691625289238019,
                        0.2751936244770755,
                        -0.12572410193089617,
                        -0.039442847713750145,
                        -0.36063520688499384,
                        -0.011190319510393953,
                        0.27721955357471495,
                        -0.1885379794620274,
                        -0.0429280610054088,
                        -0.11597055570550446,
                        0.10526533644719788,
                        -0.12667735053841864,
                        -0.05261057471016142,
                        -0.22395921652167755,
                        -1.3277563915109245,
                        0.19243832102235342,
                        0.11751017972542444,
                        -0.10811394799380208,
                        -0.19517778924264872,
                        0.025942075106781592,
                        -0.24002355710948664,
                        -0.013638474141305978,
                        0.9773327545048827,
                        -0.22959131403822122,
                        0.2452092500135279,
                        -0.23268787106831143,
                        -0.856799423735496,
                        0.11393251834612539,
                        0.026027429309880556,
                        0.16634108439615386,
                        0.23931279847637799,
                        0.20953087439776752,
                        -0.20606407387288359
                    ],
                    "Weights.size": 36
                },
                {
                    "InputBias": -0.029916524794661226,
                    "Weights": [
                        0.2571798487159961,
                        -0.21234096458843693,
                        -0.05866673618089521,
                        -0.12033814384549638,
                        -0.12425932272631784,
                        0.1620425742381587,
                        -0.07126887925945355,
                        -0.38308758409438515,
                        0.06718452570793249,
                        0.16202398968990767,
                        0.0040828903309760856,
                        -0.19925939801355724,
                        -0.1442363180011969,
                        0.07072889436003454,
                        -0.22451592130201478,
                        0.14248409820755864,
                        -0.23926414899401324,
                        -0.11496126120302785,
                        0.2561068134105656,
                        -0.10818466828178783,
                        0.08273442683699184,
                        -0.09418196665593706,
                        0.2377177021918505,
                        -0.24139680717176118,
                        -0.1631370388787418,
                        0.26199184366169725,
                        -0.1423682330123329,
                        -0.10480187405092029,
                        -0.18258009819694707,
                        -0.23115826210238974,
                        -0.009047506288707596,
                        0.2881670029987279,
                        0.03130647982611395,
                        0.12692882128624067,
                        0.040260485616515185,
                        0.252913793105067
                    ],
                    "Weights.size": 36
                },
                {
                    "InputBias": -1.891413299482406,
                    "Weights": [
                        -0.15626339665732952,
                        0.21529095687035482,
                        0.0002095392572579735,
                        0.17386493676943282,
                        0.24970683622068124,
                        -0.9439162652327899,
                        -0.06736962952832254,
                        -1.241493707463392,
                        -0.0436629913782286,
                        0.11965333355266233,
                        -0.1848576041653005,
                        0.12974894569591888,
                        0.2800021149452092,
                        -0.23208358108215155,
                        0.024063938934221818,
                        -0.2329732862474414,
                        -0.3030887263077009,
                        -0.11257505501239473,
                        0.1510597289991898,
                        -0.1280677679677541,
                        0.05894874844639347,
                        0.21798997867369307,
                        -0.16971236145330967,
                        -0.23096718214826553,
                        -0.0489832147513678,
                        -0.08792189382003299,
                        -0.28487230643467143,
                        -0.07381098548478202,
                        -0.2676642001747625,
                        0.1891812734741795,
                        0.2654484385020539,
                        0.06507540233049103,
                        0.44617589008161446,
                        0.046483582264749634,
                        -0.04763927397590062,
                        -0.23537872383043265
                    ],
                    "Weights.size": 36
                },
                {
                    "InputBias": 5.574182685556809,
                    "Weights": [
                        4.6847970006454895,
                        -0.02393836607232558,
                        -0.10459011838325069,
                        8.881212816158238,
                        0.6372483309136034,
                        -2.506499832723114,
                        -4.607723483900233,
                        -1.9895561428959039,
                        -0.20189241244528966,
                        0.2774292018104072,
                        0.34802667231124346,
                        0.06232865149042072,
                        -2.1615692146996146,
                        0.06212706357433023,
                        10.662543877443632,
                        0.7633139864898317,
                        -0.18360128701290823,
                        -1.379565073916055,
                        -0.10085774272133996,
                        -0.21596807918808097,
                        -0.13397603599593821,
                        0.13791124163454754,
                        0.17239121816900504,
                        -0.02079945610159184,
                        0.0651489982643102,
                        1.4227260903198524,
                        0.9519953830953076,
                        -0.2235192255883619,
                        -0.13783444172492593,
                        0.2524788937729042,
                        0.007064887230771699,
                        -4.9777273148008865,
                        0.1349296582912416,
                        -0.03660314342633042,
                        -4.885947314126599,
                        3.885162437119493
                    ],
                    "Weights.size": 36
                },
                {
                    "InputBias": 2.5540170941355633,
                    "Weights": [
                        -0.13699856576105007,
                        -0.030739614594937015,
                        0.11834162263226189,
                        3.0121134726390624,
                        0.08571367670485308,
                        0.13448369950360567,
                        0.9604575638581835,
                        -0.27213174729910194,
                        -0.2791241124632569,
                        0.21344956748637633,
                        1.9555896748749615,
                        -2.8940349181531144,
                        0.04544153108738941,
                        0.07779725303901025,
                        -0.2251571238512003,
                        -2.4715189619091076,
                        0.24454996040866306,
                        2.032154467957616,
                        0.011419957772299538,
                        0.2145748211723537,
                        1.964895392974202,
                        2.2984589311277706,
                        0.26223038673718635,
                        0.02531548786382387,
                        -0.2478533098337279,
                        -2.6989373982120184,
                        0.13124889449421762,
                        -0.7864754442211341,
                        0.07516801385260158,
                        -0.11733073640770647,
                        0.31670373756137926,
                        2.7164149806451405,
                        0.19879172210019352,
                        3.843508091583442,
                        -1.3630992878843404,
                        1.7398264090847544
                    ],
                    "Weights.size": 36
                },
                {
                    "InputBias": 0,
                    "Weights": [
                        0.09301869311434596,
                        0.22438399805005926,
                        -0.2876183109906123,
                        0.036761091667934565,
                        -0.18192124936683252,
                        -0.130509514197005,
                        -0.16425103893761134,
                        -0.10613406150701835,
                        -0.14724461452909066,
                        0.18779536617728387,
                        -0.17708010070460678,
                        0.07809609304502779,
                        0.07215661236685977,
                        -0.2356416313956424,
                        0.020380183772075677,
                        0.27497236685399773,
                        0.2838979733173803,
                        0.08006852170560796,
                        -0.13220645573004589,
                        -0.04555257474986121,
                        0.13936789118033904,
                        -0.05674502887270702,
                        0.027368942163632948,
                        -0.19998603454964176,
                        -0.11792749849566139,
                        0.24627562551585114,
                        -0.037118600101982535,
                        0.23834217172951733,
                        0.1796546956053749,
                        -0.2553964410646575,
                        -0.22425245992302165,
                        -0.17236430639453998,
                        0.18410501290161568,
                        0.2531603962923853,
                        -0.11133810124968294,
                        0.03994207597435229
                    ],
                    "Weights.size": 36
                },
                {
                    "InputBias": 0.40245440800506294,
                    "Weights": [
                        0.08349320483887135,
                        -0.11291213887512797,
                        -0.24404143498730063,
                        -0.18813757993261981,
                        -0.1114440549369132,
                        -4.9084053632793445,
                        -0.28816564152296414,
                        -8.260922805981199,
                        -0.06430950593816043,
                        -6.076680409097462,
                        -4.115977054661003,
                        0.6654489550077708,
                        1.171703942251292,
                        -7.010464221316141,
                        4.6360794291891745,
                        -0.6567137706961144,
                        0.10300215811762786,
                        2.452193465766222,
                        -3.112742271378539,
                        -0.013054221227934704,
                        0.18530070622806905,
                        3.62219315844151,
                        -0.25715377472301193,
                        -5.16847020539903,
                        -3.4043504854690845,
                        -0.2854028016535688,
                        -0.26086803694444816,
                        0.19308371436160454,
                        0.010750089039313071,
                        0.053166881185832515,
                        -0.09495857414373046,
                        -3.386319128889583,
                        0.2861847796493412,
                        8.158244522509467,
                        -0.22553659414035898,
                        -2.178146535950513
                    ],
                    "Weights.size": 36
                },
                {
                    "InputBias": 0.4626282039234596,
                    "Weights": [
                        -0.13208648487597136,
                        0.20922749434127474,
                        0.2506538965498698,
                        -0.08827118994190103,
                        0.2404253454545412,
                        0.1436400312306761,
                        -0.07817326165225144,
                        0.056172059744791336,
                        0.2776153494174588,
                        0.01316258028078321,
                        0.09836463440820875,
                        -0.17589908500944035,
                        -0.08791569171824501,
                        -0.2791101151129856,
                        -0.1849653393152444,
                        -0.0791317045110855,
                        0.19238780408543665,
                        -0.17214888496876635,
                        -0.21550424577729466,
                        0.25225376250798204,
                        -0.07296327858475268,
                        -0.09629153533341672,
                        0.19790574847735132,
                        -0.13666709556030446,
                        -0.09597586996117191,
                        -0.104740344350636,
                        0.1603464267040992,
                        0.09647723312396178,
                        0.21103730165130613,
                        -0.026227331879926985,
                        0.07589752333637623,
                        -0.20384225001193473,
                        -0.06308114951237453,
                        -0.06152971678845803,
                        -0.1073244240690254,
                        -0.24705267286300514
                    ],
                    "Weights.size": 36
                },
                {
                    "InputBias": 0,
                    "Weights": [
                        0.24128307400582927,
                        0.2769984742570575,
                        0.06225543707425746,
                        0.1626849793999462,
                        -0.15779238004189283,
                        -0.2766068971173452,
                        0.11559531844533805,
                        -0.21309484375048854,
                        -0.2854429824694906,
                        0.12290352062252285,
                        -0.04520329132180151,
                        0.26811396058316483,
                        -0.08287363879978929,
                        -0.1801011761597659,
                        -0.2719421749011396,
                        0.19289608019414423,
                        0.13416293904821558,
                        0.15202252345751788,
                        0.11121860602286948,
                        -0.27112207629816754,
                        -0.05779434363454894,
                        0.15673901769878346,
                        -0.2841774011691092,
                        -0.26170624074093685,
                        0.05988858133366598,
                        0.20353756317344268,
                        -0.1780818487381614,
                        0.21915233968434644,
                        -0.12348115877022772,
                        -0.12764821524973818,
                        -0.047083669040200005,
                        -0.04300405303471494,
                        0.19106376712995066,
                        0.2091203668220859,
                        0.19192060902020464,
                        -0.21236068322940732
                    ],
                    "Weights.size": 36
                },
                {
                    "InputBias": 0,
                    "Weights": [
                        0.0703898397728332,
                        0.013292542624926074,
                        -0.25098786216120805,
                        0.1729209490303345,
                        0.2062458297629834,
                        0.16986416341107713,
                        0.11010267388457079,
                        -0.2667527975891505,
                        -0.06772093497443565,
                        -0.2812114844300924,
                        0.04012548552517581,
                        0.09734975721130773,
                        0.14746765928756728,
                        0.1474606928087147,
                        0.28404680832746,
                        -0.036624857203608085,
                        0.028399734571276924,
                        0.011515612970201927,
                        0.11901740081581763,
                        -0.010394746932320065,
                        0.20307649220288848,
                        0.08299533835625061,
                        0.27537823683835994,
                        0.056406085075487444,
                        0.05771124357419127,
                        -0.22570560725751565,
                        0.16499463201801,
                        -0.1296005266698816,
                        -0.23556848876836317,
                        -0.21225254900773716,
                        0.25180241751675236,
                        0.134849919302865,
                        0.02445517636288619,
                        0.06589107206352218,
                        -0.20820332735396863,
                        0.038530506059585024
                    ],
                    "Weights.size": 36
                },
                {
                    "InputBias": 1.0234606687612535,
                    "Weights": [
                        -0.06318087727923513,
                        -0.06415506738924004,
                        0.18354765221490277,
                        0.034897000414379875,
                        0.05095407848535115,
                        0.09290161834361987,
                        0.14391603278323128,
                        -0.23512447725236738,
                        -0.10914481229199774,
                        0.2235927876818955,
                        0.19606675545682767,
                        0.09949208687157085,
                        0.13138917146770346,
                        -0.057612884021520705,
                        -0.157919481771438,
                        0.06258502572771568,
                        0.21719793337444815,
                        -0.15997330188182643,
                        -0.09227729188619141,
                        -0.20210225663653822,
                        0.11143388839300572,
                        -0.00397227146731044,
                        0.08969898088220707,
                        -0.1958818454249553,
                        0.050651392333144585,
                        0.028542700658420628,
                        0.22847334571543476,
                        0.03289548264002118,
                        0.28552583040247037,
                        -0.184431953895377,
                        0.7528658639914314,
                        -0.2420971226179992,
                        -0.09306721363790985,
                        -0.26080193221353604,
                        -0.029089710557084536,
                        -0.21753023399654703
                    ],
                    "Weights.size": 36
                },
                {
                    "InputBias": 1.3499039491092326,
                    "Weights": [
                        0.17075567722889995,
                        0.0078446220660785,
                        0.06084948673341639,
                        0.15405846996417322,
                        0.21409462516693722,
                        -0.1319496855378304,
                        0.0179015878238607,
                        0.10206777023881336,
                        -0.1903610917570854,
                        0.10164251653966205,
                        -0.12208542279361115,
                        0.12917313625242377,
                        -0.09566193105080661,
                        -0.05312072070643872,
                        -0.15485732730026713,
                        0.023642359882638297,
                        -0.12256647546863353,
                        0.10779027013563686,
                        -0.43515330437591304,
                        0.7080955783125205,
                        0.2260292209915823,
                        -0.17567524183017577,
                        0.26420517566703416,
                        0.06410530561918287,
                        -0.024051985721613323,
                        0.04701541555414279,
                        -0.2799488672990508,
                        0.18916890752810278,
                        0.2459779944151187,
                        0.7930258227597278,
                        0.17472962499874084,
                        0.12044343752031089,
                        -0.21928616013384677,
                        -0.6441165122359231,
                        -0.08198612588890211,
                        0.2040793544184495
                    ],
                    "Weights.size": 36
                },
                {
                    "InputBias": -0.0011832775619780066,
                    "Weights": [
                        -0.2819191197395236,
                        0.2838085473602523,
                        -0.2704840692356846,
                        -0.2121638121216451,
                        0.11227860524394984,
                        0.18714042276324339,
                        0.12201998533229652,
                        -0.2412879322359723,
                        -0.008043269635840622,
                        0.008527686878496699,
                        0.2253408603063891,
                        -0.04793661081649478,
                        -0.24503830019213488,
                        -0.22405022791481946,
                        0.05448637031783865,
                        -0.038634374717013475,
                        -0.17072411167347812,
                        0.23884527046453286,
                        0.02691802868027493,
                        -0.0679080678628276,
                        -0.06306128190306903,
                        -0.14649534476101747,
                        0.10553975523199849,
                        -0.1807313616297632,
                        -0.26712450021717393,
                        0.034909876343702295,
                        0.2700377015083063,
                        -0.20974378189998394,
                        0.18886156418348343,
                        0.2386635284941656,
                        -0.13511167325059745,
                        -0.23234061133395484,
                        -0.055829436072223126,
                        0.15398611297121356,
                        -0.1640043807983268,
                        -0.15433260904089327
                    ],
                    "Weights.size": 36
                },
                {
                    "InputBias": -0.17885186209601123,
                    "Weights": [
                        0.02272702086058004,
                        -0.07965033564099136,
                        0.15854640609263487,
                        -0.020185341693575,
                        -0.00379522380769981,
                        -0.03128305104890772,
                        -0.18537601069969728,
                        -0.277032698556964,
                        0.1361577821299264,
                        -0.22997315326816237,
                        0.13563075955932752,
                        -0.05375355432889897,
                        0.20030092228932106,
                        0.07111895501581073,
                        -0.2699497730768573,
                        -0.28827236255735206,
                        0.19853549730004916,
                        0.0620662049164295,
                        0.2261213038890031,
                        -0.056552409262845715,
                        0.0669262742663308,
                        0.08296593295414711,
                        0.0033105492965901373,
                        -0.17553348229221521,
                        -0.16678134339839412,
                        0.04596652108824717,
                        -0.15137132456787664,
                        0.08568357982130997,
                        -0.12488180550143424,
                        -0.19385636540224005,
                        -0.12798048130439535,
                        0.027205280484883188,
                        -0.1680228125943905,
                        -0.18668203112425497,
                        0.18902960067250546,
                        -0.17328176568461506
                    ],
                    "Weights.size": 36
                },
                {
                    "InputBias": 0.1720725335807367,
                    "Weights": [
                        -0.26313345468201366,
                        -0.2789249287374362,
                        0.15727028737017534,
                        0.13931605903039262,
                        -0.23297068513286706,
                        -0.09156313939690008,
                        -0.2718873063421678,
                        -0.2757358246694673,
                        0.04835093648229899,
                        -0.15681496559844707,
                        -0.015052713208594526,
                        -0.2747383981826341,
                        0.2064363752315621,
                        -0.08973938452016147,
                        -0.058892424832591356,
                        0.10630003081803618,
                        -0.10937135236644138,
                        -0.19821670932581847,
                        0.10434187124119859,
                        -0.0849227078117607,
                        -0.2622828530504339,
                        0.22997385929833825,
                        0.16744986738271345,
                        0.2621375183900623,
                        -0.250073896711167,
                        0.20767909134509083,
                        -0.10018614400899495,
                        0.21764298669562743,
                        -0.13059660846216253,
                        0.19446641431514777,
                        0.2099073102931353,
                        -0.14343610564202203,
                        0.07464818622311636,
                        0.14475639141929258,
                        -0.200654260648995,
                        -0.05541077352934881
                    ],
                    "Weights.size": 36
                },
                {
                    "InputBias": 0.02388725831395408,
                    "Weights": [
                        0.1842145171457178,
                        -0.011554083481722988,
                        -0.04546948523770525,
                        -0.10469851946050579,
                        0.19095120467132232,
                        0.06583465898106777,
                        -0.24225574877968145,
                        -0.18878033798310048,
                        0.1079280721688477,
                        -0.010201023502889928,
                        -0.07796649248231549,
                        0.23604946986075026,
                        0.1321387988495088,
                        0.05987204806826929,
                        -0.12789676831572855,
                        0.1958890395167739,
                        -0.09942239866644731,
                        -0.05717158404431619,
                        -0.24657253653724384,
                        -0.17307291882613235,
                        -0.12407470164736079,
                        0.10538394824526359,
                        0.06410004507192257,
                        -0.16063628152743106,
                        0.07952394684631559,
                        0.14637755687136433,
                        0.2722201435459235,
                        -0.03733427212232682,
                        0.051781364547697106,
                        -0.2798663898200738,
                        -0.11416077632291405,
                        -0.035766113606345684,
                        0.27938374373083474,
                        0.22175390216095092,
                        0.02857218161228675,
                        0.07690244885307806
                    ],
                    "Weights.size": 36
                },
                {
                    "InputBias": 0.7272947184960477,
                    "Weights": [
                        1.920509726263682,
                        0.2095837446410183,
                        -0.2180220092253225,
                        -1.0478388046438334,
                        -0.27178251280617893,
                        0.27134540225402615,
                        0.08793505487751158,
                        -0.2877785306667353,
                        -0.0028893568212281506,
                        -0.21421058133655163,
                        0.245929024970715,
                        -0.02720474419398833,
                        -0.02677516838619587,
                        -0.12543502942346071,
                        -0.2721117843948777,
                        -0.21051547609490662,
                        0.1948437863468941,
                        0.11717645328666587,
                        -0.07716031976742965,
                        -1.9450390869343024,
                        -1.360244384809393,
                        -0.28754171897211345,
                        -0.17439232662782345,
                        0.08229971912633022,
                        -0.14685977908465128,
                        0.2213327876763289,
                        -0.1935793443693674,
                        0.02855317958353637,
                        -0.25787663505076114,
                        -0.10748773501664033,
                        -0.11534826899213765,
                        -0.14504993156111456,
                        -0.12076502612508486,
                        0.2855844113081901,
                        2.439704377544536,
                        0.13818936725404435
                    ],
                    "Weights.size": 36
                },
                {
                    "InputBias": -0.6288815876904613,
                    "Weights": [
                        0.07704945917621225,
                        0.2580698448321417,
                        2.969730409924926,
                        -0.07379408887401478,
                        -0.266059095268896,
                        0.03030668641625872,
                        0.10481749413250646,
                        -0.07227422965411412,
                        -0.12053385774088843,
                        -0.052310727017185754,
                        -0.17657416997320097,
                        -2.439347750322186,
                        0.27795715795237874,
                        0.28608596887028415,
                        0.23146259921989398,
                        0.022747637527992803,
                        0.05622968895012109,
                        0.19435435319118127,
                        -1.5372589955306069,
                        0.20696813152880683,
                        0.11665454119611013,
                        -0.2738724477417142,
                        0.12131696024154909,
                        -0.01544158711029936,
                        -3.514726597307191,
                        0.06585873145129884,
                        0.058114710034946726,
                        0.23160290932338246,
                        0.23771912630030034,
                        0.2307713946151787,
                        -0.21916767525697217,
                        0.06457366976273371,
                        0.23622834028102968,
                        0.04467712627561682,
                        0.03139419271440791,
                        0.04148377012155411
                    ],
                    "Weights.size": 36
                },
                {
                    "InputBias": 0.5377400529764702,
                    "Weights": [
                        -0.10528971401106271,
                        0.06066200150252521,
                        -0.07232239780528632,
                        -0.15659540416225645,
                        -0.06410365611169586,
                        0.09701143102867982,
                        0.20227406470991777,
                        -0.008142014473801917,
                        -0.015013539577600543,
                        0.08900341576266557,
                        -0.19608243184729268,
                        0.19286052683409455,
                        -0.15013546222943383,
                        -0.18516736618129645,
                        -0.28612057306590094,
                        0.2096557394577141,
                        0.2444434695298895,
                        0.07924186151192797,
                        -0.014911996482691259,
                        0.029717822811066164,
                        -0.2724876369746171,
                        0.04151210029205993,
                        0.0736596298503368,
                        0.20894068051226383,
                        0.23282156441622048,
                        -0.12364507019642909,
                        -0.2475939947173284,
                        -0.005751165650366541,
                        -0.12661975954239033,
                        0.2389434672137556,
                        0.030925860228574353,
                        -0.22938828044207907,
                        0.22041062060487226,
                        0.2585316331569443,
                        -0.16713849128342328,
                        -0.049923087993770016
                    ],
                    "Weights.size": 36
                },
                {
                    "InputBias": 0,
                    "Weights": [
                        -0.17092676570909648,
                        -0.004478425404229935,
                        0.15241544506917742,
                        -0.12324280914270161,
                        -0.007692076810535631,
                        -0.06196772071579498,
                        -0.22486928547949364,
                        0.11999187565044789,
                        0.1498464616163399,
                        -0.12986717914014695,
                        0.17911743386213536,
                        0.03714871508064088,
                        0.07116181217837264,
                        -0.005170955097023144,
                        0.06928255655975835,
                        0.10181486226603165,
                        -0.2018102405589675,
                        -0.07278935035998785,
                        -0.16499744609835085,
                        0.045575281694846204,
                        -0.2686791291080786,
                        0.23698930944922092,
                        0.2099651686648245,
                        -0.045576904005005525,
                        0.0040916853347721105,
                        0.27607605305707517,
                        0.1707417876244645,
                        -0.1234492040772191,
                        -0.21843477985726992,
                        -0.05312392584807871,
                        0.07185058563193508,
                        0.08089368311066719,
                        -0.1456369964118108,
                        0.00941685093394734,
                        0.06988672944277458,
                        -0.17397134975444695
                    ],
                    "Weights.size": 36
                },
                {
                    "InputBias": -0.43873215303994906,
                    "Weights": [
                        0.13099557754208185,
                        -0.27178792976829175,
                        1.371849076418445,
                        -0.08756105191959224,
                        -0.13629574905137232,
                        -0.21200090972225166,
                        0.15760448368443608,
                        0.07154016226491944,
                        -2.98255258490806,
                        -2.6413633297551162,
                        0.9292738950439696,
                        -0.19773191376765964,
                        -0.15676216489715455,
                        3.2910975743101973,
                        0.042176218839469704,
                        -0.11357046621995792,
                        1.2105932530536643,
                        -3.4299082954582256,
                        -0.20301319830078096,
                        0.15562559794474556,
                        -0.2283033989859053,
                        -0.13188356759185194,
                        0.1409046091540479,
                        -0.13608192671768285,
                        0.012480551374797255,
                        0.25156823328579947,
                        0.1587786877534264,
                        0.10032790227439492,
                        -0.2277242075567853,
                        0.055026156693666506,
                        -0.22833687953639456,
                        2.397105734737658,
                        -1.1574146453832885,
                        0.09796416886390047,
                        -0.0720934893133523,
                        -0.21348737680868113
                    ],
                    "Weights.size": 36
                },
                {
                    "InputBias": 3.2554837904186114,
                    "Weights": [
                        0.1538466557008762,
                        -0.210365693922879,
                        0.18617628109363754,
                        0.0800377296044148,
                        0.1943206904387556,
                        0.21791670350886594,
                        0.009847120887855887,
                        0.069062518227894,
                        3.5270938282514828,
                        -0.16788360918434142,
                        -0.23304948326738517,
                        0.20767798275825972,
                        -0.2359358538215031,
                        -1.8516186359023261,
                        0.1840514650007693,
                        0.08847175567286913,
                        -4.808585788439798,
                        -0.15606971589338314,
                        -0.03878136930487533,
                        -0.11533251391021554,
                        0.04409403610389945,
                        -0.23094210578859986,
                        -0.18765630064502112,
                        -0.011071634647191575,
                        0.05799725833266711,
                        -0.012722199270217727,
                        -0.015046792359479588,
                        -0.15942652045338265,
                        0.19304397055990546,
                        -0.1340573028349099,
                        0.11026758249609597,
                        -0.15368538270778975,
                        0.2811229159865311,
                        -3.358866773845434,
                        6.535179214909592,
                        3.426649164344564
                    ],
                    "Weights.size": 36
                },
                {
                    "InputBias": 0,
                    "Weights": [
                        0.044480859081655555,
                        -0.27460744411197535,
                        0.09146619881757634,
                        -0.0801817560715723,
                        0.1601747812575327,
                        0.16467033996796,
                        0.101045785381013,
                        0.22775890113918684,
                        -0.0017827115166683116,
                        -0.10347434899554053,
                        0.27282129042303294,
                        0.24330285705875387,
                        -0.13050357976160148,
                        -0.15345263656663488,
                        -0.13659359777729205,
                        -0.24241347422919843,
                        -0.17725484450325818,
                        0.03757418097966281,
                        0.24971311512870298,
                        0.010339960666230774,
                        -0.13044558962792424,
                        -0.277932474597225,
                        0.03159515373551458,
                        0.06311428261556479,
                        0.2553384044695505,
                        0.1354254456177687,
                        0.13148898644211765,
                        0.005243128641232275,
                        0.16458942764824863,
                        -0.16270163132505303,
                        -0.20188973784551406,
                        0.17831853987759316,
                        -0.2330412448823439,
                        -0.12218302905425266,
                        0.2736168507525938,
                        -0.07260614420006023
                    ],
                    "Weights.size": 36
                },
                {
                    "InputBias": -7.143721221046988,
                    "Weights": [
                        0.1334229568607957,
                        -3.5351373831299715,
                        -5.046274836419655,
                        7.104890436640819,
                        0.187088403161345,
                        -0.1310002057938253,
                        -7.7057791528081605,
                        -0.09043729781930049,
                        -0.004869775130321052,
                        8.419425665784468,
                        0.13228762157014423,
                        -6.056510816455358,
                        0.20181371555219235,
                        3.3942305346591897,
                        7.186454536991724,
                        0.2738061108723152,
                        0.21673484622638706,
                        0.17408495605329483,
                        -0.16764008371142436,
                        4.25775560752626,
                        -0.006010223825984984,
                        0.07962259005285027,
                        -0.44030216389442384,
                        -0.08005040009733869,
                        0.0966847808447539,
                        0.20304758177883603,
                        -0.013203704882431555,
                        -5.067050408710984,
                        1.6876009258219518,
                        -0.0473414418770792,
                        4.836662121579527,
                        -0.03820786084987188,
                        -0.07401295954555315,
                        0.1800844019997258,
                        8.706686219413253,
                        -2.508328385743911
                    ],
                    "Weights.size": 36
                },
                {
                    "InputBias": -0.23328672943774742,
                    "Weights": [
                        -0.070736625418371,
                        -0.21669691989623188,
                        0.24645610237861437,
                        -0.24396562946984074,
                        0.03447643573249676,
                        -0.21310404037755312,
                        -0.025355490267888914,
                        0.2066913773111103,
                        -0.01286591216297639,
                        -0.11443674929537415,
                        -0.0731926898920385,
                        0.09162222060055042,
                        0.19806095741691243,
                        0.11393872340959948,
                        -0.19791740618558937,
                        -0.012430853574748102,
                        0.0005731337831185734,
                        0.11650053274009126,
                        0.1012861906583144,
                        0.0018502693046562046,
                        -0.07772003105896316,
                        -0.20314071065453412,
                        -0.11268994373460045,
                        0.2354458663275788,
                        0.018630389922310253,
                        -0.13599518126397397,
                        -0.2796062462543593,
                        0.03362767165172864,
                        -0.15053665987410342,
                        1.5249735076983049,
                        0.20914053171572505,
                        1.191362648280721,
                        0.13268807587688008,
                        0.09796895862797961,
                        0.2217293576052629,
                        -0.00864931228283422
                    ],
                    "Weights.size": 36
                },
                {
                    "InputBias": 0,
                    "Weights": [
                        -0.12222843673713568,
                        0.23684400628378555,
                        0.052975507477507344,
                        -0.22938045630024032,
                        0.14303314640444864,
                        -0.22800508164669975,
                        -0.07991517458720862,
                        -0.11426236467507789,
                        -0.10722456099819314,
                        0.14087668508348727,
                        0.17497264828771653,
                        0.1207618300403151,
                        -0.12823777405329034,
                        0.26239848944202426,
                        0.08434632154355809,
                        0.014519118875676251,
                        0.22158879696164557,
                        -0.011373817702406253,
                        -0.08319623936076195,
                        0.02512639058604521,
                        0.1748638965530392,
                        -0.039800742652930376,
                        -0.07785154720530113,
                        0.00195454648234783,
                        0.18602013932884837,
                        -0.1592909516347422,
                        0.28399755092416257,
                        -0.11726185979398784,
                        -0.13384636308920808,
                        -0.15375599920007915,
                        0.16728721924081053,
                        -0.011541312938132708,
                        -0.18053546546006893,
                        -0.03954514131544959,
                        0.24558708859235223,
                        0.06572191205362904
                    ],
                    "Weights.size": 36
                },
                {
                    "InputBias": -2.363288628340912,
                    "Weights": [
                        0.10160784775477194,
                        -0.1504694493200213,
                        -0.1732795162231697,
                        0.24142878837732273,
                        -0.10398043012563621,
                        2.017853768999168,
                        0.08939454408629566,
                        -0.05567224440918542,
                        3.45604889213695,
                        0.19434490656668185,
                        -0.15150184071772022,
                        -0.2772957935809076,
                        -0.13908443014463578,
                        0.14620148992753124,
                        -0.3649201414921326,
                        0.2503630815892023,
                        -0.02623691286447677,
                        -0.25005364305992184,
                        0.15003016643958034,
                        -2.7902979407783426,
                        0.2656250385873843,
                        -0.07533639121492514,
                        0.24755598860296457,
                        -0.17380184427922868,
                        0.13431543955812636,
                        0.19202444848168937,
                        0.025016486085667866,
                        -0.24160539536892411,
                        0.021641389037900027,
                        0.043237004678405466,
                        -0.0330808461143679,
                        -0.12600443794494715,
                        -0.12828370244873066,
                        0.1998837304816592,
                        -2.2285592588382657,
                        -1.080169563107766
                    ],
                    "Weights.size": 36
                },
                {
                    "InputBias": -0.32872383868322796,
                    "Weights": [
                        -4.195636209668955,
                        5.4445302884069005,
                        -0.15884741447009068,
                        4.4193264443612845,
                        -2.5378674412565347,
                        0.22477442480083254,
                        0.1319152717152245,
                        -0.2704384579638026,
                        -0.0003177064062411805,
                        -0.2876127990331794,
                        0.2512029935154486,
                        3.117087520289402,
                        -0.13303089218356712,
                        -0.10730484801815421,
                        0.09727778599752862,
                        5.652540996158822,
                        0.12639922395695807,
                        -0.22621091111910965,
                        -0.21497584339283488,
                        -0.1154899047414053,
                        0.25783962752247336,
                        0.15614376538267188,
                        2.98016183814215,
                        -5.805166875650457,
                        -4.411737513600495,
                        1.539954122940273,
                        0.19619209223773842,
                        0.17104156843994978,
                        -0.05523333465402405,
                        0.26550470667633264,
                        -0.1090570355425858,
                        4.339835058807923,
                        -0.012108210714147472,
                        0.021004797907867523,
                        0.2876470306533978,
                        -0.9134370008466159
                    ],
                    "Weights.size": 36
                },
                {
                    "InputBias": 0.7852435883474229,
                    "Weights": [
                        0.10231321734428578,
                        -0.035942896766987475,
                        0.18913055078538543,
                        0.16881531027243885,
                        0.27131532837014305,
                        -0.18078883246175892,
                        0.1676758892459207,
                        -0.027810922075019562,
                        -0.07014154816927051,
                        0.255806702833274,
                        -0.21384299988304048,
                        0.02912214421803283,
                        -0.16496937667043318,
                        -0.1930872320462479,
                        -0.1730485747786336,
                        0.17216007198976585,
                        0.1973217549844683,
                        -0.17877442059451837,
                        0.1519662255514097,
                        0.11586472282784566,
                        0.1852223278707794,
                        0.2591565997454719,
                        -0.0463596391917479,
                        -0.0586097882422911,
                        -0.08174266260425422,
                        0.08140635396261403,
                        0.16967987977859977,
                        0.03977950861128887,
                        -0.28764523833061273,
                        -0.04387527413856171,
                        0.008079784288362701,
                        -0.23916172877162922,
                        -0.13122337253859548,
                        0.28552722723910695,
                        0.14288038606325437,
                        -0.0723018186654486
                    ],
                    "Weights.size": 36
                },
                {
                    "InputBias": 2.9295768549943535,
                    "Weights": [
                        0.2634828472625067,
                        0.8074108736214569,
                        5.285155177562054,
                        0.2032750453693749,
                        0.030919974802386008,
                        -4.820446488932333,
                        -2.71192039760515,
                        5.881856655438804,
                        -8.38478960478507,
                        6.082497017036449,
                        0.1783072237784053,
                        0.4073976543190509,
                        -0.15134383805196427,
                        -0.16519468970263457,
                        0.05910925320280874,
                        0.07066318855464093,
                        -3.1448728003406208,
                        -3.706251129952883,
                        1.3851717425020242,
                        -2.533528555364297,
                        0.28065168475815105,
                        5.8683377558085486,
                        -6.130248334896939,
                        10.283524457185134,
                        -6.45328315911901,
                        3.595601176676045,
                        -0.03693456009076451,
                        7.00108898264051,
                        -5.031760230665293,
                        -0.2796050432351048,
                        8.415077455873197,
                        1.2742630570688473,
                        2.6774028860285854,
                        0.2586350891389817,
                        -0.0487912147439645,
                        3.7518768422602666
                    ],
                    "Weights.size": 36
                },
                {
                    "InputBias": 0.9805942640528582,
                    "Weights": [
                        0.28084752875745356,
                        0.22450879930622702,
                        -0.02373878985886363,
                        -0.11023526579820792,
                        0.13275365647948728,
                        0.2262235268391769,
                        -0.08619712144719713,
                        0.14717338185720935,
                        -0.11793422703548204,
                        -0.026989032519951717,
                        0.07308804804354113,
                        0.055525833968203986,
                        0.2263232155748428,
                        0.17006181100989348,
                        -0.12704024228628744,
                        0.09825400030344816,
                        -0.03255636787177446,
                        0.23311531622545556,
                        0.03657661488989311,
                        0.2692996149813235,
                        0.0545264361341119,
                        0.23090810635914194,
                        -0.11230551416690546,
                        -0.02971183885951717,
                        0.06337276900450367,
                        0.2389650292609765,
                        0.2404639927206974,
                        0.06557961809045065,
                        0.20913858061590762,
                        -0.27898178642911825,
                        0.19537590883175926,
                        0.09146075449341146,
                        -0.1834410715677553,
                        -0.001919186446347143,
                        0.27254231225740533,
                        -0.26343857232180085
                    ],
                    "Weights.size": 36
                },
                {
                    "InputBias": 5.654566877760958,
                    "Weights": [
                        4.883558679042157,
                        0.2436819502907308,
                        -0.23482054737036756,
                        -0.4376356301990826,
                        -0.8814683825087324,
                        -0.09091903112149533,
                        -6.145432271645809,
                        0.6859921573517581,
                        -0.1464961747670028,
                        0.025475452229796136,
                        0.11986316058950963,
                        0.06575399013793481,
                        0.6022497948097104,
                        7.953428531096258,
                        0.08633974777965542,
                        -2.018238129957752,
                        -0.23766062741938598,
                        -6.100986171393842,
                        1.8104187054496208,
                        -1.1654591516861021,
                        -6.500943393872319,
                        0.24511083069206485,
                        -7.889626071126262,
                        0.26315590793576227,
                        2.1266984802273643,
                        -0.10319957797832305,
                        -0.24666412246905023,
                        0.04772823562798961,
                        0.2049909973246638,
                        0.1908011648390579,
                        0.12830798515440395,
                        -0.04589556080516585,
                        2.104469562311076,
                        -2.757932902663113,
                        -0.22217721021776599,
                        0.024571097262181207
                    ],
                    "Weights.size": 36
                }
            ],
            "Neurons.size": 36
        },
        {
            "Neurons": [
                {
                    "InputBias": 10.015709123648387,
                    "Weights": [
                        7.784955163531121,
                        0.18473989813942032
                    ],
                    "Weights.size": 2
                },
                {
                    "InputBias": 6.8032580012180945,
                    "Weights": [
                        4.259275665654346,
                        -2.289580664049735
                    ],
                    "Weights.size": 2
                },
                {
                    "InputBias": 0,
                    "Weights": [
                        -0.16814873303608924,
                        0.3391605979912263
                    ],
                    "Weights.size": 2
                },
                {
                    "InputBias": 0.7446717952466404,
                    "Weights": [
                        0.19837174207086244,
                        -0.34006171284573394
                    ],
                    "Weights.size": 2
                },
                {
                    "InputBias": -7.495429877781507,
                    "Weights": [
                        -0.0074415206648891785,
                        0.28372914718758824
                    ],
                    "Weights.size": 2
                },
                {
                    "InputBias": 0,
                    "Weights": [
                        0.3894592432642097,
                        -0.13352615193890083
                    ],
                    "Weights.size": 2
                },
                {
                    "InputBias": 0.11746115882690916,
                    "Weights": [
                        0.15221857401561772,
                        0.20593840301679106
                    ],
                    "Weights.size": 2
                },
                {
                    "InputBias": 4.758508556001464,
                    "Weights": [
                        0.2837003302529449,
                        6.995454901589103
                    ],
                    "Weights.size": 2
                },
                {
                    "InputBias": 6.567929118442132,
                    "Weights": [
                        -4.4385463979752595,
                        0.10218374456586415
                    ],
                    "Weights.size": 2
                },
                {
                    "InputBias": 3.7757215880304384,
                    "Weights": [
                        -0.06133548873186151,
                        0.06012604391395693
                    ],
                    "Weights.size": 2
                },
                {
                    "InputBias": 1.4142527961497442,
                    "Weights": [
                        -0.1746990651425733,
                        -0.18896965773012
                    ],
                    "Weights.size": 2
                },
                {
                    "InputBias": -4.675370791741487,
                    "Weights": [
                        0.004948973240059218,
                        -0.25504513734885814
                    ],
                    "Weights.size": 2
                },
                {
                    "InputBias": 0,
                    "Weights": [
                        0.24796822529896972,
                        0.06655072858263583
                    ],
                    "Weights.size": 2
                },
                {
                    "InputBias": 3.5276420054744104,
                    "Weights": [
                        0.16685160815082706,
                        -0.19709779202979288
                    ],
                    "Weights.size": 2
                },
                {
                    "InputBias": 0,
                    "Weights": [
                        -0.3644679051619695,
                        0.36905586756296876
                    ],
                    "Weights.size": 2
                },
                {
                    "InputBias": 0.05633248896735499,
                    "Weights": [
                        -2.5000799173091526,
                        -0.10751345746007596
                    ],
                    "Weights.size": 2
                },
                {
                    "InputBias": -1.9290366845022937,
                    "Weights": [
                        -0.24373995348368052,
                        7.701334427112934
                    ],
                    "Weights.size": 2
                },
                {
                    "InputBias": -1.1427397193216076,
                    "Weights": [
                        0.22713665324293736,
                        -0.0001684274090659188
                    ],
                    "Weights.size": 2
                },
                {
                    "InputBias": -0.6168601005061598,
                    "Weights": [
                        0.07155449996142305,
                        0.34436058842390843
                    ],
                    "Weights.size": 2
                },
                {
                    "InputBias": 0.6801112800758895,
                    "Weights": [
                        0.3969183074681542,
                        -0.08186137391978254
                    ],
                    "Weights.size": 2
                },
                {
                    "InputBias": -1.1784008846298613,
                    "Weights": [
                        0.17716453692812867,
                        -0.1519932704199432
                    ],
                    "Weights.size": 2
                },
                {
                    "InputBias": 0.3690761009143346,
                    "Weights": [
                        0.3909679030071637,
                        0.1360573416783603
                    ],
                    "Weights.size": 2
                },
                {
                    "InputBias": -7.532567835793125,
                    "Weights": [
                        0.3131568582915874,
                        -7.158826909588769
                    ],
                    "Weights.size": 2
                },
                {
                    "InputBias": 4.753330174415317,
                    "Weights": [
                        1.236312337150635,
                        6.772624738189904
                    ],
                    "Weights.size": 2
                },
                {
                    "InputBias": 0.19666426396130232,
                    "Weights": [
                        -0.15032678303813252,
                        -0.06760707890942258
                    ],
                    "Weights.size": 2
                },
                {
                    "InputBias": -1.0506462652801092,
                    "Weights": [
                        -0.02597743269579661,
                        0.38789841795635444
                    ],
                    "Weights.size": 2
                },
                {
                    "InputBias": 0.7173303900001026,
                    "Weights": [
                        5.227889879815627,
                        1.3042212761383742
                    ],
                    "Weights.size": 2
                },
                {
                    "InputBias": 0.34975592542252865,
                    "Weights": [
                        0.3434041771428497,
                        -0.13443768175821152
                    ],
                    "Weights.size": 2
                },
                {
                    "InputBias": 2.3982352879903566,
                    "Weights": [
                        0.1491769902780627,
                        -5.111545981713448
                    ],
                    "Weights.size": 2
                },
                {
                    "InputBias": -0.08960243333577478,
                    "Weights": [
                        0.002656607321730009,
                        -0.154799681494675
                    ],
                    "Weights.size": 2
                },
                {
                    "InputBias": 0.0024229484420300873,
                    "Weights": [
                        0.24169825937776696,
                        -0.09060259958423961
                    ],
                    "Weights.size": 2
                },
                {
                    "InputBias": 7.282226748869967,
                    "Weights": [
                        1.0364134975092676,
                        0.01856603860348005
                    ],
                    "Weights.size": 2
                },
                {
                    "InputBias": 0.3392445695974608,
                    "Weights": [
                        0.2953578531357887,
                        0.05873525741959468
                    ],
                    "Weights.size": 2
                },
                {
                    "InputBias": 0.7169106610339675,
                    "Weights": [
                        -0.38625301067256207,
                        -0.03237417726014985
                    ],
                    "Weights.size": 2
                },
                {
                    "InputBias": -0.922185017039379,
                    "Weights": [
                        -0.11901605965235046,
                        -0.2716668841399293
                    ],
                    "Weights.size": 2
                },
                {
                    "InputBias": -0.6781259489325643,
                    "Weights": [
                        0.11187661759989914,
                        0.19758453368930767
                    ],
                    "Weights.size": 2
                }
            ],
            "Neurons.size": 36
        },
        {
            "Neurons": [
                {
                    "InputBias": 0,
                    "Weights": [
                    ],
                    "Weights.size": 0
                },
                {
                    "InputBias": 0,
                    "Weights": [
                    ],
                    "Weights.size": 0
                }
            ],
            "Neurons.size": 2
        }
    ],
    "Layers.size": 4
}
