{
    "BrainSettings": {
        "ActivationFuncFinal": "tanh",
        "ActivationFuncGeneral": "MyReLU",
        "IsXavier": false,
        "Topology": [
            11,
            36,
            2
        ]
    },
    "Layers": [
        {
            "Neurons": [
                {
                    "InputBias": -4.342749677587362,
                    "Weights": [
                        0.031848658506694924,
                        -0.11548080627095741,
                        -0.5200379722636861,
                        -0.5382326632227015,
                        -0.47865755597933224,
                        0.329756863601775,
                        -0.19628663968155297,
                        0.3618705793130123,
                        -0.06167980671602186,
                        0.4940731658668243,
                        -0.9612266866607474,
                        0.10437898391248746,
                        0.26878707105453886,
                        -0.20096596307569017,
                        -0.748374785231074,
                        -0.26277405348825766,
                        3.914950029529818,
                        -0.2998164005115622,
                        0.5584637436349685,
                        -0.0012223022542992793,
                        0.11364207523359449,
                        -0.42758033102601317,
                        0.5405925019090486,
                        14.642920281219888,
                        14.127928822720126,
                        0.6953926772600837,
                        -0.5725926792618499,
                        -0.14731476721177425,
                        0.3984558016633441,
                        0.33474195305942667,
                        0.22675198477219202,
                        -0.31705483397488926,
                        0.22599890997240518,
                        19.52289496572869,
                        0.4936113735309242,
                        -0.6214427799484438
                    ],
                    "Weights.size": 36
                },
                {
                    "InputBias": -10.165124948081758,
                    "Weights": [
                        -0.5226932306900547,
                        -0.3561080453450297,
                        -0.11083487909115794,
                        -0.6199940837868012,
                        0.17169935591495186,
                        -0.15591189707726047,
                        0.22242642790789408,
                        0.0371472032046182,
                        0.2716457538557461,
                        -0.8072539105256418,
                        0.47380179468098826,
                        -0.20809383375135931,
                        0.18519237706228986,
                        0.06046863398601045,
                        -0.2639273365368653,
                        0.2267439661803224,
                        0.8899494086850464,
                        0.0775760287735246,
                        0.24083424193152622,
                        0.4071391828043353,
                        0.1321719618155482,
                        0.41958359794744626,
                        -0.022899955625064458,
                        -0.2998360021719896,
                        0.49136206594786563,
                        0.39877026703145935,
                        -0.047455144018873324,
                        -0.7070995421747157,
                        0.6417373816927732,
                        0.1984201396088493,
                        0.003861361528429485,
                        0.10273187842902654,
                        0.41906795185664714,
                        -0.29258410493368553,
                        0.1178117795433471,
                        -0.11175052928340835
                    ],
                    "Weights.size": 36
                },
                {
                    "InputBias": 3.378130636329235,
                    "Weights": [
                        39.010778933627826,
                        0.43746568804089186,
                        -0.3456278472468205,
                        22.406157812375646,
                        -0.6040987836874087,
                        16.291378896441557,
                        0.36472445764276756,
                        -42.95840221451396,
                        0.31173054301371533,
                        -0.4024107435797575,
                        -0.1726670340243312,
                        -1.2658542301485283,
                        26.071645903845987,
                        0.5744107197173363,
                        -0.25569742723708533,
                        -23.304467286230565,
                        -6.246479153448005,
                        -0.28411685362304656,
                        -0.40573636868024954,
                        29.501703180305757,
                        0.4069922736105569,
                        -0.6842866165305145,
                        -0.33992129465128185,
                        -0.06123791635127733,
                        -0.7299589339456106,
                        -0.6298934663317268,
                        18.35229221594191,
                        -0.10165373094991947,
                        25.523286650469345,
                        8.471064919937813,
                        0.1617110906184838,
                        -0.27443715810748404,
                        16.515670295531358,
                        -0.8500699157901119,
                        -37.940110256015245,
                        -1.3880338251946447
                    ],
                    "Weights.size": 36
                },
                {
                    "InputBias": -23.39225212036027,
                    "Weights": [
                        -0.6488605829003325,
                        -33.91988573171372,
                        -52.59232720266502,
                        -0.8058843814751981,
                        -42.4202422408464,
                        7.29983335420307,
                        37.27254749830456,
                        -8.762931553899227,
                        -28.96164224623168,
                        0.2820323814132636,
                        10.102953089035827,
                        -0.2885274197272818,
                        -0.2855260795883761,
                        35.261057561632256,
                        0.24933467085016528,
                        27.27928612722014,
                        26.25145006044202,
                        -18.181846516110266,
                        -0.1532942007728017,
                        -16.933732828600686,
                        -0.4278445052836626,
                        -0.6152301664787082,
                        -0.3075632854081342,
                        24.925194255805103,
                        0.8518727867290993,
                        29.724102155127138,
                        -0.17834003805620519,
                        21.73976952592236,
                        0.3258562261310404,
                        -2.2565978578198465,
                        33.907137902366415,
                        14.08419537307146,
                        24.91135372298238,
                        18.3073121126847,
                        16.95368872561683,
                        0.07065683533632743
                    ],
                    "Weights.size": 36
                },
                {
                    "InputBias": 7.923762929920727,
                    "Weights": [
                        0.04740688662724241,
                        13.270791799240806,
                        -0.111280204009168,
                        -0.004446109364150181,
                        -0.5433868435337813,
                        0.049033085685845024,
                        -7.629865924836186,
                        -14.474776263038208,
                        0.06971499138735616,
                        0.6336293610948786,
                        -0.36717443387069076,
                        -0.3486380781420063,
                        -0.01771385739357843,
                        -0.3607188505404507,
                        -0.4585372959096309,
                        -8.9865237149923,
                        0.34993046717366644,
                        -0.9639905217410115,
                        0.0069038153467988125,
                        0.5930669772238855,
                        -0.541392892762486,
                        10.322221791263386,
                        0.5029568569378836,
                        -14.314859354973636,
                        -0.01905749159419662,
                        0.2566475754689175,
                        -0.06433226663497617,
                        0.2273953399560441,
                        0.263186698929128,
                        -0.0025163956416210387,
                        -0.3918918113664307,
                        0.3681895537122074,
                        -0.6617595015487283,
                        -0.2605501930132371,
                        0.11486610961534871,
                        0.03872953429683347
                    ],
                    "Weights.size": 36
                },
                {
                    "InputBias": 11.716552052298042,
                    "Weights": [
                        -0.08178664626492829,
                        -0.0074676245030144695,
                        -0.08480378333399416,
                        0.719302377980384,
                        0.5627504914406611,
                        0.044370794846117445,
                        2.936354734554571,
                        1.0081993096283601,
                        0.12341173493871153,
                        -0.836520299916929,
                        -10.658189537685208,
                        -0.4453906285953957,
                        12.514939563734735,
                        -9.9906076739087,
                        -0.40737857469988425,
                        0.5385258900818862,
                        -0.08811885866130931,
                        0.8403167851299365,
                        0.2049693333854839,
                        0.4148613080855184,
                        0.09550982227337132,
                        -0.9331463208982502,
                        0.006399633839518637,
                        -0.6010517619814116,
                        12.135099533887372,
                        13.323539160767712,
                        -0.46457757963951424,
                        -0.46098479622689514,
                        0.08701706069041314,
                        0.12011575749050249,
                        0.7180636936985467,
                        -0.12975535736200436,
                        0.13464785152554476,
                        -0.3043840564260581,
                        0.8140239707954517,
                        0.30130094111726446
                    ],
                    "Weights.size": 36
                },
                {
                    "InputBias": -0.21898843849238558,
                    "Weights": [
                        0.10856251682237138,
                        0.02866054187954908,
                        -0.4837842921112082,
                        -0.1851090128333038,
                        0.2825851065026631,
                        -0.2219443677880628,
                        0.026394964484202674,
                        -0.30475629087993444,
                        0.06944515410993676,
                        0.03760890701957557,
                        -0.33513190011919686,
                        -0.33570954466338043,
                        0.24281132782527337,
                        0.3808438735584863,
                        -0.6697600036423776,
                        0.5994884574919059,
                        0.5780587573859257,
                        -0.17040538790959558,
                        -0.44975117461641634,
                        -0.17919233839574672,
                        0.0836454901098062,
                        0.7100043614389153,
                        -0.2820756963723998,
                        0.009187518605341678,
                        -0.05281518729248031,
                        0.3444667293609267,
                        0.0011878611961113417,
                        -0.009041544826137872,
                        -0.06133428000090618,
                        -0.26248529095913686,
                        -0.5797079485748892,
                        -0.11376332733571665,
                        -0.31077009251168064,
                        0.3952791517659815,
                        0.3497259262542487,
                        -0.5431463078400415
                    ],
                    "Weights.size": 36
                },
                {
                    "InputBias": 0.31056540083811457,
                    "Weights": [
                        0.03222175032645505,
                        -0.29283016314007826,
                        0.04146131369642432,
                        0.4940107665367507,
                        0.29440856215320554,
                        0.03590065193824712,
                        -0.11821391707430055,
                        -0.3063506943563657,
                        0.3130561135894344,
                        0.17643609367565527,
                        -0.5747493195691451,
                        0.23639674976282948,
                        -0.03460211356855565,
                        -0.22868594257888336,
                        -0.35631548181710965,
                        -0.05220605081159449,
                        0.053657496899178,
                        0.7141079064961631,
                        0.8180845726446947,
                        0.2361530423919128,
                        0.33698807848703893,
                        0.0635887571816066,
                        -0.1260490517687638,
                        0.6185028794016479,
                        -0.7640356887181718,
                        0.054553824327786785,
                        -0.0558166526792038,
                        0.06236047515017181,
                        -0.7472170142878842,
                        0.13223219358007532,
                        -0.24442888076968702,
                        -1.0878465524568974,
                        -0.6310528849101408,
                        0.3796738501983149,
                        -0.2899648325215051,
                        -0.28745537623338047
                    ],
                    "Weights.size": 36
                },
                {
                    "InputBias": 0.4115631449354531,
                    "Weights": [
                        0.23344532812383353,
                        -0.14768528998871733,
                        0.5362968289257006,
                        0.4529806873928977,
                        0.3378923113102275,
                        -0.6531428840045168,
                        -0.31479793352868835,
                        -0.10986076690917977,
                        0.5060683124330568,
                        -0.28006704456439147,
                        0.2756357500978632,
                        -0.047308319061411634,
                        -0.021011377549789732,
                        0.02451945335657355,
                        -0.5238573513684944,
                        -0.47240562884558,
                        -0.7084465012825161,
                        -0.7813845707615374,
                        -0.02095324128690461,
                        2.9500694091679796,
                        0.19832519274005733,
                        0.2529145076412337,
                        -0.10954904833494054,
                        0.3294737125164044,
                        -0.08580029608535636,
                        0.5242101504431412,
                        0.24412584962856065,
                        0.21018742735151782,
                        -0.031370905916730356,
                        -0.5300060701728975,
                        -0.3471705132492922,
                        -0.5156223447167249,
                        0.4570058261966271,
                        -0.008672196371065356,
                        -0.416202988367444,
                        -0.021399865311825163
                    ],
                    "Weights.size": 36
                },
                {
                    "InputBias": 16.524038321779535,
                    "Weights": [
                        1.3579095828172485,
                        20.717773541969468,
                        -0.2912955006451735,
                        -0.24974457388644353,
                        0.24300112778407468,
                        1.947687907847815,
                        0.8224916031390426,
                        0.6247804490566551,
                        0.08539663905422598,
                        0.37438855819073213,
                        21.550124765940648,
                        0.6562951210222934,
                        0.4054941786134211,
                        -0.24197795315655815,
                        -12.151089645473578,
                        -5.463681858136695,
                        -0.37165072881863237,
                        0.9540200297946261,
                        -0.9500826851305878,
                        0.6049653476043019,
                        0.2826034000176316,
                        8.783855602722628,
                        0.0833478418780632,
                        -0.24577529751738267,
                        0.7519385498142648,
                        0.36008056557149826,
                        -0.16861605428360088,
                        0.292748077663993,
                        -0.06620238921516844,
                        -1.025844915610458,
                        -0.31790112906339063,
                        -0.24955469457369886,
                        -0.49463319098587716,
                        0.012280077125990439,
                        -0.3593802446329403,
                        -0.6063247800943784
                    ],
                    "Weights.size": 36
                },
                {
                    "InputBias": 9.087586037100664,
                    "Weights": [
                        0.3986890983729069,
                        -0.32232020383527815,
                        0.5576586066713671,
                        0.7941712734210415,
                        0.054046636153177376,
                        0.5470778961247275,
                        -0.35665696001504155,
                        -0.5550691048127909,
                        0.34798030142633535,
                        -0.14947911339008396,
                        0.29513472980911265,
                        -0.3068837842354801,
                        -0.1655785771971946,
                        -0.2876512412052453,
                        -0.45418945885753836,
                        0.2081904675836569,
                        0.41649938260103403,
                        0.3626887981767639,
                        0.6260253229406586,
                        0.1439499541474692,
                        -0.25153278392999856,
                        -0.4617712949413082,
                        -0.10304840607335045,
                        1.3608499566297017,
                        -0.2067746277357919,
                        -0.5146599711994803,
                        0.24132137032018708,
                        -0.5065183760060479,
                        0.4384855844660961,
                        -0.20413325170440305,
                        0.6638037103226213,
                        -0.01272412989322478,
                        0.03413685902497368,
                        0.33669984719834956,
                        -0.3708420171648352,
                        0.7249539590478478
                    ],
                    "Weights.size": 36
                }
            ],
            "Neurons.size": 11
        },
        {
            "Neurons": [
                {
                    "InputBias": -7.92579695777383,
                    "Weights": [
                        -0.12119458843010947,
                        -0.003750161820958298
                    ],
                    "Weights.size": 2
                },
                {
                    "InputBias": 1.1444093185735649,
                    "Weights": [
                        -0.049103423797124346,
                        -0.03401778697762034
                    ],
                    "Weights.size": 2
                },
                {
                    "InputBias": -22.37045244591433,
                    "Weights": [
                        -0.19411473435280088,
                        -0.013200512238179446
                    ],
                    "Weights.size": 2
                },
                {
                    "InputBias": -30.56716192740013,
                    "Weights": [
                        7.899711333792878,
                        0.1526495088472205
                    ],
                    "Weights.size": 2
                },
                {
                    "InputBias": -2.9052953707316047,
                    "Weights": [
                        -4.03913280459847,
                        0.11787007384930248
                    ],
                    "Weights.size": 2
                },
                {
                    "InputBias": -5.995378375086213,
                    "Weights": [
                        0.36553854511521133,
                        0.26662923403952726
                    ],
                    "Weights.size": 2
                },
                {
                    "InputBias": 21.926440760400787,
                    "Weights": [
                        0.254257711908617,
                        -0.12229978071699467
                    ],
                    "Weights.size": 2
                },
                {
                    "InputBias": -7.6636910971449925,
                    "Weights": [
                        -0.1576862132595149,
                        -0.2781101388699142
                    ],
                    "Weights.size": 2
                },
                {
                    "InputBias": 12.687417470842085,
                    "Weights": [
                        -0.059320364822069954,
                        -0.030241328522573923
                    ],
                    "Weights.size": 2
                },
                {
                    "InputBias": 0.526181508962523,
                    "Weights": [
                        0.21217308938411872,
                        13.181964094716681
                    ],
                    "Weights.size": 2
                },
                {
                    "InputBias": -12.315446517405466,
                    "Weights": [
                        -12.77294060669799,
                        0.38727924120659296
                    ],
                    "Weights.size": 2
                },
                {
                    "InputBias": -27.90381019729682,
                    "Weights": [
                        -0.3998938229293206,
                        0.28405204662417527
                    ],
                    "Weights.size": 2
                },
                {
                    "InputBias": -23.48057039618594,
                    "Weights": [
                        -0.2101684976855666,
                        0.02186881133208506
                    ],
                    "Weights.size": 2
                },
                {
                    "InputBias": 10.404753938644367,
                    "Weights": [
                        -0.14593684010292,
                        -0.28163690551040366
                    ],
                    "Weights.size": 2
                },
                {
                    "InputBias": 4.581438403728218,
                    "Weights": [
                        -0.21565039236224964,
                        -0.24047238555587452
                    ],
                    "Weights.size": 2
                },
                {
                    "InputBias": -2.564226342685628,
                    "Weights": [
                        0.1268571150393397,
                        -0.07967440757152529
                    ],
                    "Weights.size": 2
                },
                {
                    "InputBias": 0.33488014467742055,
                    "Weights": [
                        -0.14583683151926508,
                        0.0020808232213445324
                    ],
                    "Weights.size": 2
                },
                {
                    "InputBias": 5.262071468765527,
                    "Weights": [
                        -18.441008955427794,
                        0.15687036602879084
                    ],
                    "Weights.size": 2
                },
                {
                    "InputBias": 4.257876283663592,
                    "Weights": [
                        14.806490175899842,
                        0.17884132567058375
                    ],
                    "Weights.size": 2
                },
                {
                    "InputBias": -1.3277863334089937,
                    "Weights": [
                        0.17141008177019132,
                        0.18712672996090746
                    ],
                    "Weights.size": 2
                },
                {
                    "InputBias": 12.083594677380292,
                    "Weights": [
                        0.30890204174915753,
                        0.4422785003960916
                    ],
                    "Weights.size": 2
                },
                {
                    "InputBias": -2.0513551085047452,
                    "Weights": [
                        -0.22298488018799567,
                        -0.029322093139194687
                    ],
                    "Weights.size": 2
                },
                {
                    "InputBias": 30.09437030937605,
                    "Weights": [
                        0.5022166736564315,
                        0.045198157670897514
                    ],
                    "Weights.size": 2
                },
                {
                    "InputBias": -3.015637318109989,
                    "Weights": [
                        0.045792465084823944,
                        -1.3454072930671166
                    ],
                    "Weights.size": 2
                },
                {
                    "InputBias": -0.7389507069982777,
                    "Weights": [
                        0.35913265107471815,
                        0.3768977395761345
                    ],
                    "Weights.size": 2
                },
                {
                    "InputBias": 4.926504862641226,
                    "Weights": [
                        -0.10016094042524847,
                        -0.10764236665133409
                    ],
                    "Weights.size": 2
                },
                {
                    "InputBias": -0.5912553902638324,
                    "Weights": [
                        0.3921555237548195,
                        -0.26644776991415825
                    ],
                    "Weights.size": 2
                },
                {
                    "InputBias": 1.5532443748108606,
                    "Weights": [
                        0.1703514335156558,
                        0.4333780006893049
                    ],
                    "Weights.size": 2
                },
                {
                    "InputBias": -8.71399586351062,
                    "Weights": [
                        -0.22027974772057077,
                        0.25016039965128584
                    ],
                    "Weights.size": 2
                },
                {
                    "InputBias": 12.855023411636706,
                    "Weights": [
                        0.0978183453712326,
                        0.06988098467259835
                    ],
                    "Weights.size": 2
                },
                {
                    "InputBias": -28.48719864020493,
                    "Weights": [
                        -0.07207088485007428,
                        0.06041576544644778
                    ],
                    "Weights.size": 2
                },
                {
                    "InputBias": -19.013221180521946,
                    "Weights": [
                        0.15569978404167656,
                        -0.1284028429018112
                    ],
                    "Weights.size": 2
                },
                {
                    "InputBias": 10.981425058194217,
                    "Weights": [
                        0.0949985003882064,
                        0.20439455996835237
                    ],
                    "Weights.size": 2
                },
                {
                    "InputBias": 3.483068524100008,
                    "Weights": [
                        -0.1794653127308836,
                        -0.07953681607326775
                    ],
                    "Weights.size": 2
                },
                {
                    "InputBias": -2.686617848335978,
                    "Weights": [
                        -0.28803953151037087,
                        -0.196752588889777
                    ],
                    "Weights.size": 2
                },
                {
                    "InputBias": 8.626453644200568,
                    "Weights": [
                        0.1016012928739008,
                        -0.48458228217944255
                    ],
                    "Weights.size": 2
                }
            ],
            "Neurons.size": 36
        },
        {
            "Neurons": [
                {
                    "InputBias": 0,
                    "Weights": [
                    ],
                    "Weights.size": 0
                },
                {
                    "InputBias": 0,
                    "Weights": [
                    ],
                    "Weights.size": 0
                }
            ],
            "Neurons.size": 2
        }
    ],
    "Layers.size": 3
}
