{
    "BrainSettings": {
        "ActivationFuncFinal": "tanh",
        "ActivationFuncGeneral": "MyReLU",
        "IsXavier": false,
        "Topology": [
            11,
            36,
            48,
            36,
            2
        ]
    },
    "Layers": [
        {
            "Neurons": [
                {
                    "InputBias": 0.10000200681580045,
                    "Weights": [
                        -0.38429855926577233,
                        0.04783188642083721,
                        -0.18356128927012438,
                        0.3603712483431813,
                        -0.4823896444322114,
                        -0.7185268819844097,
                        0.1877295334153128,
                        -0.2294610167038236,
                        -0.6199577369973271,
                        0.04799613534835398,
                        -0.20857969474532595,
                        0.05492271632727209,
                        0.09209907667330663,
                        0.8546126751403111,
                        0.3934696085916061,
                        0.18997336734376705,
                        0.3634756882038472,
                        -0.5556669121928737,
                        0.1763997896341803,
                        0.14597204931046473,
                        0.07654732099826078,
                        -0.5640026864126887,
                        0.41114101439883577,
                        0.7292607640688689,
                        -0.11578207770018256,
                        -0.18235178867818452,
                        0.03060355588613841,
                        -0.06979333490736911,
                        -0.2494641455768995,
                        -0.3307082391904994,
                        0.2147272672393657,
                        0.003221393831189549,
                        -0.015452415152453703,
                        -0.12433736725194072,
                        -0.5454605308643377,
                        0.05696116601260248
                    ],
                    "Weights.size": 36
                },
                {
                    "InputBias": -0.17564990649806886,
                    "Weights": [
                        0.6477512974788793,
                        -0.09004232811236518,
                        0.6702298060729037,
                        -0.04138197367661167,
                        -0.13938268627139316,
                        0.3105363671989803,
                        -0.03287757922996164,
                        -0.14665362291604217,
                        0.041993014913865326,
                        0.042348287271773116,
                        0.0544046551342467,
                        0.498278066693417,
                        -0.6557328617600269,
                        0.08326436289823981,
                        0.35971927733538156,
                        0.15736988487216497,
                        0.27046132305696935,
                        0.17255696690138578,
                        0.2500904813397015,
                        0.4484749993181459,
                        -0.3468567565820568,
                        0.15075813691915396,
                        0.2782675202294413,
                        0.09447155471869412,
                        0.6651914126257262,
                        -0.5691831591191601,
                        0.17645380750248957,
                        -0.2660819258734422,
                        0.20372284972487786,
                        -0.5138746100186239,
                        0.44287079894187065,
                        0.22427590137732734,
                        -0.7292436275487716,
                        -0.607542572521334,
                        -0.4299399274972965,
                        0.2182981425992361
                    ],
                    "Weights.size": 36
                },
                {
                    "InputBias": -0.17239069771416365,
                    "Weights": [
                        -0.23011389921417746,
                        0.4887335087609982,
                        -0.10926517239255099,
                        0.018808616641931824,
                        -0.5316985683680735,
                        0.1339291808778247,
                        -0.3852772837180498,
                        0.10366736587505947,
                        -0.41194110293116093,
                        0.32421984539923454,
                        -0.04960845295448228,
                        0.09078087887927054,
                        0.10553959758013157,
                        0.4858449335708238,
                        0.7113202725336619,
                        0.028528440120949863,
                        0.5544137391571948,
                        0.3920022583964168,
                        0.16258724861475476,
                        0.4973781242580123,
                        -0.8106129217091935,
                        0.5232312137977251,
                        -0.6482310297701672,
                        0.024414422043863397,
                        0.7545408693046038,
                        0.3300135609345877,
                        -0.05656139796007538,
                        -0.15366600801808397,
                        -0.9040908607271346,
                        0.43962981129891415,
                        0.2157569659554975,
                        -0.0019900922722046357,
                        -0.5706865472088026,
                        0.2133824923474749,
                        -0.3958499019117925,
                        -0.1705741358778605
                    ],
                    "Weights.size": 36
                },
                {
                    "InputBias": -0.17529232001030848,
                    "Weights": [
                        0.4927082576974821,
                        -0.10553932960885751,
                        0.18389837975979076,
                        -0.014501119124814471,
                        0.35990726646035276,
                        0.09578688178403773,
                        -0.018505462231943576,
                        -0.1131486443685083,
                        0.12233455462293208,
                        -0.367501092816249,
                        0.7337999369644133,
                        0.09508679799726306,
                        -0.7834389553577092,
                        -0.16286026059329903,
                        -0.04101342702653771,
                        -0.2973309996900769,
                        -0.24772944544463077,
                        -0.44504224883876564,
                        -0.18614768878122123,
                        -0.8120544608057754,
                        0.3267760043863633,
                        0.09885769748476203,
                        0.5966928069677566,
                        -0.14219253000136076,
                        -0.3047129505259029,
                        0.7622997980785416,
                        1.1390666738127408,
                        0.03378101366162532,
                        0.5729795573887637,
                        -0.3241742081265906,
                        -0.5340836061616427,
                        0.031037238141162382,
                        0.5427400727398949,
                        0.2871318838752662,
                        0.21231476010903186,
                        -0.4215932794934817
                    ],
                    "Weights.size": 36
                },
                {
                    "InputBias": 0.21189611499374367,
                    "Weights": [
                        0.030680327724047555,
                        0.7593598691196748,
                        -0.3924831063202257,
                        -0.28377022634780885,
                        0.45407907430066374,
                        -0.14544208608342812,
                        0.4075838260991774,
                        0.16856469086800846,
                        0.28327867935376566,
                        -0.2818606955503213,
                        0.8476809204422937,
                        -0.3834480978084735,
                        0.5160233910242035,
                        0.7616474602641936,
                        0.6814034350663751,
                        -0.23867835586749822,
                        -0.49710927456081644,
                        0.618548126996763,
                        0.7716802649533019,
                        -0.099106672089213,
                        0.13797024008700437,
                        0.22623266959664784,
                        0.41879029976846865,
                        0.8437647745985807,
                        0.18592625168629456,
                        -0.44493791858356335,
                        -0.8842187400660467,
                        -0.27845270525087057,
                        -0.26609442055391186,
                        0.09329925443138856,
                        0.3023626699104356,
                        -0.022929629538717494,
                        -0.14871108507800934,
                        0.40305537657960544,
                        -0.1993492119034561,
                        0.42366113874982814
                    ],
                    "Weights.size": 36
                },
                {
                    "InputBias": 0,
                    "Weights": [
                        0.398676432149788,
                        0.44299802412952993,
                        0.006542736760090624,
                        -0.28648859877298366,
                        0.13891890465148415,
                        -0.0017886290797392665,
                        0.46152528670446374,
                        0.36697621938920827,
                        -1.1358824172670343,
                        0.04611956792637614,
                        0.20400936341001558,
                        0.6772090109919765,
                        0.47485189415218865,
                        0.1099468254387512,
                        0.05192480032314972,
                        0.1389278496962547,
                        0.3257423489575207,
                        -0.13208617944738374,
                        0.18739617135939257,
                        -0.2518649002062335,
                        -0.755392507293289,
                        -0.7434804757728096,
                        -0.3584931669978204,
                        -0.7812275626823418,
                        -0.08355969922392521,
                        0.3390748743348296,
                        -0.025229305469009807,
                        -0.5216429142472585,
                        -0.48834232124952875,
                        -0.5485598302513325,
                        0.36206191466342175,
                        0.29619870272305904,
                        -0.042913406437350796,
                        0.6391660330953746,
                        -0.05909051304696639,
                        -0.008477291151829455
                    ],
                    "Weights.size": 36
                },
                {
                    "InputBias": -0.10348734202093568,
                    "Weights": [
                        0.19153133912987436,
                        0.11493852986647418,
                        0.08073094562366863,
                        -1.2072934195980496,
                        0.3021513307993049,
                        1.0919398557727225,
                        0.3528949318772525,
                        -0.33684269579959836,
                        -0.7236205147383241,
                        0.3914375212831199,
                        -0.3668125227003068,
                        -0.20759012850381903,
                        -0.2135126636391899,
                        -0.5649307918775911,
                        0.2452223446522911,
                        0.7292875264151596,
                        -0.662283852178735,
                        -0.07278460261883296,
                        0.3362418717817033,
                        -0.18826731334212232,
                        0.3607091501112199,
                        -0.16377937619857127,
                        0.3636041859299473,
                        -0.46017507674570746,
                        -0.20865468469211615,
                        -0.6632495390237587,
                        -0.8792912550737545,
                        -0.7828165400982251,
                        0.1084941367561878,
                        0.16922591369148532,
                        0.4345412652970685,
                        0.46302771473874615,
                        0.17762370516132345,
                        -0.26084254459935785,
                        0.5253988714191969,
                        -0.2794215533351798
                    ],
                    "Weights.size": 36
                },
                {
                    "InputBias": -0.1868892483291116,
                    "Weights": [
                        -0.059408063148709195,
                        0.12280628414573182,
                        0.0031483311174342332,
                        0.04899703860924922,
                        -0.24365825763666316,
                        0.7042906107427425,
                        0.11140900009452981,
                        -0.090169592412286,
                        0.14831436187777522,
                        -0.5961800129122934,
                        -0.1821058338194301,
                        -0.43183072230931496,
                        0.2745299730312199,
                        1.1931902432918555,
                        0.03746725392790608,
                        0.7871540864424564,
                        0.2204958737867874,
                        -0.18705544498512588,
                        0.8929296672631566,
                        -0.3005824548669516,
                        -0.565756940100178,
                        -1.0784884156726984,
                        0.038379385462793486,
                        -0.14059701147962697,
                        0.01225370098409085,
                        0.5542032455736119,
                        -0.7557220975506673,
                        -0.253844755157856,
                        -0.31443665580445307,
                        0.13046606102712396,
                        0.4550317427649218,
                        0.29516720665188007,
                        -0.2608993828884717,
                        0.4935571299058048,
                        -0.10987901616709582,
                        -0.13515018262361056
                    ],
                    "Weights.size": 36
                },
                {
                    "InputBias": 0.3411625172616082,
                    "Weights": [
                        -0.16462097857196717,
                        0.9743279247134663,
                        -0.1693090358005384,
                        0.9437967640168803,
                        -0.1606193380592561,
                        0.45656492649403685,
                        -0.6520306898253233,
                        -0.06535306618801415,
                        0.0846313293048199,
                        -0.16389939214162083,
                        -0.668703218797865,
                        -0.3272100470093768,
                        0.13463747473614296,
                        -0.1334327872261692,
                        -0.0656146178358199,
                        -0.07586190294573873,
                        -0.8313273546389679,
                        -0.15795293263681115,
                        -0.0034673543359376446,
                        0.20983667971541495,
                        -0.14223936843966317,
                        0.5461745058267162,
                        0.20381709819220542,
                        -0.08474299797803975,
                        1.4676762723118664,
                        0.8649123511293095,
                        -0.21795015012761526,
                        -0.3145499145928998,
                        -0.668246339770701,
                        0.14144498228421387,
                        -1.0755039320260806,
                        -0.44130831857103153,
                        0.11749794259869725,
                        0.22898771332366397,
                        -0.23788589159669002,
                        0.5559971672628627
                    ],
                    "Weights.size": 36
                },
                {
                    "InputBias": -0.10530241854440275,
                    "Weights": [
                        -0.4150659887653201,
                        -1.3539752575191955,
                        -0.0766966818582906,
                        0.12519631854423563,
                        0.24856074987311566,
                        -0.3279412903001761,
                        -0.37755495017631535,
                        -0.09518937778856223,
                        -0.03445930436907988,
                        0.1473901735772971,
                        -0.8796820372885309,
                        -0.4137051200353964,
                        0.2707512375903629,
                        -0.15137292836170302,
                        0.8641430758506359,
                        0.2531861116290349,
                        0.3770382160923482,
                        -0.7713129280047853,
                        -0.46329585767593723,
                        0.4412771789875763,
                        -1.1311936681963046,
                        0.0028478216688577473,
                        0.2840184150503627,
                        -0.6865076539636219,
                        0.7471275430017934,
                        -0.12491561128309894,
                        0.39340279435174624,
                        0.3937043204471217,
                        -0.03226273850371353,
                        0.8446827805786392,
                        0.6606953522586617,
                        0.11441417966466619,
                        0.1624442832615544,
                        -0.2815172282613442,
                        0.3217998340182475,
                        0.233502260759545
                    ],
                    "Weights.size": 36
                },
                {
                    "InputBias": 0.052707759527709105,
                    "Weights": [
                        0.5976644712694829,
                        0.18462259253142158,
                        -0.03824194980581612,
                        -0.5352884270934959,
                        0.7774814016287971,
                        0.42026098699312603,
                        0.7894473745254311,
                        -0.038414844583169266,
                        -0.28152171590061864,
                        -0.10575916940496996,
                        0.06135356074434777,
                        0.03381596007732014,
                        -0.05523589679871099,
                        -0.05210039050500068,
                        -0.2523918932960622,
                        -0.4325878438590836,
                        0.27208132395055323,
                        -0.07348966555561205,
                        -0.7168477821243716,
                        0.15046978483418127,
                        0.12906973759069867,
                        0.23193307492992005,
                        -0.199334339180755,
                        0.205429970965683,
                        0.11070585850092327,
                        0.312488167472528,
                        -0.4420472975296909,
                        -0.5671541995395774,
                        0.30698810171860735,
                        0.08226791832339768,
                        0.5677153943668658,
                        -0.15048653911122473,
                        0.3679656769079514,
                        -0.016548081953010777,
                        -0.13827628119143826,
                        0.1138842786045375
                    ],
                    "Weights.size": 36
                }
            ],
            "Neurons.size": 11
        },
        {
            "Neurons": [
                {
                    "InputBias": 0.6447553703149849,
                    "Weights": [
                        -0.0020357640043346115,
                        -0.43906974111217556,
                        0.2669512522526618,
                        -0.237122470001298,
                        -0.269653832121056,
                        -0.2739135070302096,
                        -0.07744583643162632,
                        -0.3293279414766811,
                        0.29995038654421585,
                        0.25881473213175366,
                        0.3063404722748355,
                        0.14334656631207576,
                        0.030218320340752416,
                        0.025621161492499746,
                        -0.30211707166013185,
                        0.257962357148526,
                        -0.19882235939772933,
                        -0.11100167067085573,
                        0.24030626955692852,
                        -0.07431143830073006,
                        -0.5777900728978576,
                        0.0413499218648328,
                        0.06604191187757938,
                        -0.12906052161706788,
                        1.096630407903198,
                        0.14629415153761371,
                        0.37833117799560967,
                        0.49221685241429125,
                        0.05340721153622082,
                        0.5139193432458665,
                        0.43971186955125885,
                        -0.30965890949848524,
                        -0.1869954966595961,
                        0.6355404922134575,
                        -0.3653847742874522,
                        -0.11409532146760437,
                        -0.22697005284779,
                        -0.49757667048688514,
                        0.07555045844039332,
                        0.05424881312919844,
                        -0.26547303391333077,
                        -0.15068921936634905,
                        0.20967397501213675,
                        -0.17681078168373643,
                        -0.10381481965172373,
                        0.12614376901898922,
                        0.13212509688004265,
                        -0.04415529201085711
                    ],
                    "Weights.size": 48
                },
                {
                    "InputBias": -0.11576093146560054,
                    "Weights": [
                        -0.17293747894808154,
                        0.5129534937690143,
                        -0.3856796205743264,
                        -0.06500853269867551,
                        0.13576279812720798,
                        0.15171044898989922,
                        -0.005036762750443639,
                        -0.14230507851808114,
                        -0.21076322753021776,
                        0.20167259354610434,
                        -0.319593397036061,
                        -0.17374216947919013,
                        0.04068636772092076,
                        0.2809419505697909,
                        -0.3366004023275115,
                        0.3208850019874203,
                        0.2355171834751713,
                        0.07126973045284117,
                        -0.21841624958523853,
                        -0.36133874248854675,
                        0.05352763091461116,
                        -0.26352313816996614,
                        0.07179970275120832,
                        0.2242493541966813,
                        0.10464738667234255,
                        0.01487115907555056,
                        0.16042340993410042,
                        0.07385936546852308,
                        0.20247559505963986,
                        0.2572440610631087,
                        -0.15657790492673285,
                        0.06236147565185936,
                        0.06364384019113656,
                        -0.33521657845287994,
                        0.07398055185759678,
                        -0.04892231505303539,
                        -0.14947836863918676,
                        0.08420805431041178,
                        0.09615574796895376,
                        0.1336674841249153,
                        -0.05534975288670074,
                        0.13359290747101668,
                        0.10032706995896987,
                        0.30243958923371517,
                        -0.046482838578128044,
                        0.060384887758308636,
                        0.24071319340254327,
                        -0.2966877636254463
                    ],
                    "Weights.size": 48
                },
                {
                    "InputBias": -0.1772698141422773,
                    "Weights": [
                        0.10557355983861796,
                        0.5180441605735953,
                        -0.16652971949067163,
                        -0.07305246789500912,
                        0.00427291275531283,
                        0.08283734244648078,
                        0.29819026870268533,
                        0.044972438302603474,
                        0.20403295179656514,
                        -0.1533616640575557,
                        0.5562190230153982,
                        -0.18302035235739975,
                        0.2725983926257689,
                        0.13269790362616846,
                        0.3792684918551983,
                        -0.25008362581920884,
                        0.7577335191832548,
                        0.3040689273837369,
                        0.1905667147095687,
                        -0.20626527028409747,
                        0.08412266229434051,
                        0.20800996170659622,
                        0.3475446150987976,
                        0.07288364132503033,
                        -0.07663652996845324,
                        -0.2820979236327854,
                        -0.08456865085855281,
                        -0.09485770507738026,
                        -0.3424511082633426,
                        -0.28906972575422835,
                        -0.20400279993658058,
                        0.2048164891645478,
                        -0.0779488003960929,
                        -0.0845906647484384,
                        0.32973931250508604,
                        -0.09653943819416914,
                        0.0668801334574434,
                        0.04003326919525902,
                        0.32164895531971494,
                        -0.43086794663308486,
                        -0.3039967131705854,
                        0.24160872590532298,
                        0.23243665320111997,
                        -0.1329871681717088,
                        0.4441201644353272,
                        -0.3711013598773829,
                        0.022850863354692996,
                        0.06576675972459765
                    ],
                    "Weights.size": 48
                },
                {
                    "InputBias": -0.06823910902228869,
                    "Weights": [
                        -0.3402407797745185,
                        -0.09972561882717401,
                        0.1313367783632254,
                        0.7431404144096619,
                        0.16435891934293984,
                        -0.17626347314242974,
                        0.1167747988630253,
                        -0.3033402107856573,
                        0.10582169683583104,
                        0.2737203322177778,
                        -0.5210078067115114,
                        0.27865633173751897,
                        0.043373391545319016,
                        0.03571701757560064,
                        0.01465734851973352,
                        0.038291991132354375,
                        0.26672527589423173,
                        -0.005772330899796095,
                        -0.31050716584222826,
                        -0.11572829484523695,
                        -0.7613459918679006,
                        -0.6871200482553979,
                        -0.6697372775566124,
                        -0.010704221322559443,
                        0.9013038036866856,
                        0.0037010854858953446,
                        0.06790125802363603,
                        0.670999894402937,
                        -0.3135577031637008,
                        -0.3693295040066534,
                        -0.2400538656696413,
                        0.22193529613819835,
                        -0.7256707025021415,
                        0.001301547385297766,
                        -0.0872025528740739,
                        -0.20487757495718842,
                        0.00765855311066304,
                        0.09153481551485013,
                        0.2678807680786289,
                        0.19589772431047742,
                        -0.2631369278026239,
                        0.36119782281088586,
                        0.7241922447991112,
                        -0.265830761658613,
                        0.6718164728632806,
                        0.44298482138398637,
                        -0.09270776651907245,
                        -0.03486929937452002
                    ],
                    "Weights.size": 48
                },
                {
                    "InputBias": 0,
                    "Weights": [
                        0.1601381841501447,
                        -0.22755822786082308,
                        0.14405328084159583,
                        -0.3464713487282775,
                        0.3895549536317705,
                        -0.06558561293842652,
                        -0.10315133176751803,
                        -0.12962022731888315,
                        0.1311998073206856,
                        -0.197124189210272,
                        -0.5585568291410291,
                        0.18309884653013891,
                        0.5594890661396527,
                        -0.14652743855362088,
                        0.46892038358416444,
                        -0.17704812844666024,
                        -0.09494266133747005,
                        -0.029864190094452712,
                        0.19779373161693373,
                        0.15317112377257425,
                        0.3200286982267981,
                        0.020423462784804773,
                        0.12551796560253697,
                        -0.21969148005282982,
                        -0.049425815219508666,
                        -0.1315966836863222,
                        -0.07943548765351056,
                        0.2921754915658762,
                        -0.004249539800436629,
                        0.24255541479008744,
                        -0.12607605753945023,
                        0.3966808656852504,
                        0.3651449890706332,
                        -0.09920877891771447,
                        -0.023706724571255233,
                        -0.3736368614232365,
                        -0.4858863128974207,
                        0.10339860366378265,
                        -0.1858136309908465,
                        -0.17277264954401256,
                        0.1841243856567791,
                        0.10591021531908126,
                        -0.1876258767091071,
                        -0.2118977698322148,
                        -0.28952999700412857,
                        -0.3600005777436359,
                        -0.319648524998747,
                        0.05971717251600573
                    ],
                    "Weights.size": 48
                },
                {
                    "InputBias": -0.4539367027666724,
                    "Weights": [
                        -0.6355016058317204,
                        -0.35188902581743076,
                        0.10184669084948947,
                        0.13325828618366928,
                        -0.006866172367632691,
                        0.1590051927065006,
                        -0.25506983874644656,
                        0.3375503491437866,
                        0.023192970852609074,
                        0.2671683742025459,
                        -0.1840960408264349,
                        0.06620156054931531,
                        0.11962538970550561,
                        0.12784691998228054,
                        -0.0024872846570456325,
                        -0.1990472001810063,
                        0.44016250636145454,
                        0.31958137686254057,
                        0.6030896871393114,
                        -0.15658753356068714,
                        0.1651350474155348,
                        0.10172354577750625,
                        0.19980428535174533,
                        -0.010787102802887888,
                        -0.106504756501977,
                        -0.4627916605938873,
                        -0.02821035584023374,
                        -0.4915046439530685,
                        -0.42653179591701507,
                        0.13704780187105586,
                        0.3780662743538308,
                        0.0657166915787909,
                        -0.11810093816146439,
                        0.01244517468365426,
                        0.11811392783936825,
                        0.004780019509784686,
                        -0.20666415581351313,
                        -0.0034252309502886408,
                        0.08771517094132722,
                        -0.1214732625627888,
                        0.18545575351495192,
                        0.3911474149732239,
                        0.25571940448235897,
                        0.20406849346732844,
                        -0.04539258887395623,
                        0.04694430227462407,
                        0.029749560424657817,
                        0.14973149265253685
                    ],
                    "Weights.size": 48
                },
                {
                    "InputBias": 0.16097786797692804,
                    "Weights": [
                        -0.10287772531814608,
                        0.0964073854400625,
                        -0.0791438787140296,
                        0.2613158528462991,
                        -0.27071680249915925,
                        0.23409043511482389,
                        -0.21648766138645256,
                        0.3471965303912927,
                        0.2339254657910761,
                        -0.08558329044510798,
                        -0.465402661282298,
                        0.07167298263298758,
                        0.0005875975409146696,
                        -0.3687592380584218,
                        0.9390719957583776,
                        -0.12267498024560328,
                        0.36023439671242413,
                        0.006266019111341999,
                        -0.331398399375123,
                        0.30522053867388554,
                        -0.4552100904757757,
                        0.30470789670379284,
                        0.42224772614884165,
                        0.07402900160371112,
                        -0.019200350226355606,
                        0.02863228384072314,
                        -0.2832124757137634,
                        -0.7132495563534434,
                        0.35563251561688264,
                        -0.010096382592434693,
                        0.06363488690115823,
                        -0.08816153001928871,
                        -0.405623930116888,
                        0.08393944263031446,
                        0.7767295598438092,
                        -0.03377273522909015,
                        -0.5701771310744852,
                        -0.170140448886346,
                        -0.019323437305541483,
                        0.12224105353998176,
                        -0.106323867840598,
                        -0.06665854974736601,
                        -0.4733874582275314,
                        -0.08254126630818227,
                        -0.0018865701028568105,
                        -0.4302602114016081,
                        0.5290315086703189,
                        0.14704401815493065
                    ],
                    "Weights.size": 48
                },
                {
                    "InputBias": 0.3528965615541381,
                    "Weights": [
                        -0.46592948062413037,
                        0.34647776367294447,
                        0.11003556683110637,
                        0.15706719872526353,
                        -0.5901421220236499,
                        0.26988125885867065,
                        0.6495595252879467,
                        -0.5499652918698436,
                        -0.2408165896486353,
                        0.11000885962079286,
                        0.10083156392835232,
                        0.3320869776834796,
                        -0.17271391785773071,
                        -0.03405747483453888,
                        0.20888826481526374,
                        0.2461286090714349,
                        -0.2832318701822122,
                        -0.018232905987474672,
                        0.08100171821432207,
                        0.2925570690088968,
                        0.6553155030705533,
                        0.3058792825045911,
                        -0.09457307288014849,
                        0.43287225858137757,
                        -0.7418722429523139,
                        -0.23009995173152265,
                        -0.20314774315517736,
                        -0.11763413323883637,
                        0.6454439151639386,
                        -0.18126738733100806,
                        -0.4458216882487134,
                        0.1393028952640369,
                        0.33023823470729186,
                        0.03220288661355552,
                        0.22469708681014094,
                        -0.7625306204285338,
                        -0.13548530951721005,
                        -0.16904240281476673,
                        0.6860264109318244,
                        -0.08521178911017904,
                        -0.12805909922420505,
                        -0.5695529825591675,
                        -0.49941614147468605,
                        -0.00045140975021421806,
                        0.03437761679973562,
                        -0.1552981260149805,
                        0.285194261692139,
                        0.11531037829064075
                    ],
                    "Weights.size": 48
                },
                {
                    "InputBias": 0.20923359523639978,
                    "Weights": [
                        -0.1517724748443323,
                        -0.045134077759543256,
                        -0.26288922509407364,
                        0.021042500988671095,
                        -0.2414282704074577,
                        -0.14549009822173647,
                        -0.17012784269522324,
                        0.06903477058852808,
                        0.20567931233272535,
                        -0.261840193023282,
                        0.33774853486401796,
                        -0.39368793923000356,
                        -0.2745870512118465,
                        -0.03933261931859541,
                        0.03573244929883598,
                        -0.10054940632970533,
                        0.31104861251788185,
                        -0.07489300367394246,
                        0.08850082615128287,
                        -0.2051474540337798,
                        0.3751049501129432,
                        0.23373186050994407,
                        0.0838697397886427,
                        0.5092462107995136,
                        0.15798917040636884,
                        0.029878622130306492,
                        0.17778440878112017,
                        0.17407487343150524,
                        0.25762903801390147,
                        0.2135074812811762,
                        -0.1601951377922749,
                        -0.3703428616047322,
                        -0.6768844717570803,
                        0.24102897026222234,
                        0.008249116251435026,
                        0.13390120371480752,
                        -0.2917340752155591,
                        -0.03813662303709879,
                        -0.10427026627338264,
                        0.024303339653602193,
                        0.46107141839404736,
                        0.09327265563933318,
                        -0.28706320306209776,
                        0.1386866667907286,
                        0.06654043026977151,
                        0.005779708331471074,
                        -0.2718521524715312,
                        0.006895075708658188
                    ],
                    "Weights.size": 48
                },
                {
                    "InputBias": 0,
                    "Weights": [
                        0.2972072339623515,
                        0.021893753063712027,
                        0.3013597601193166,
                        0.2351311327774299,
                        -0.14393204693413963,
                        0.148526085708935,
                        0.0843176567540014,
                        0.3514128865136373,
                        -0.41718190228180607,
                        0.37743365165019976,
                        -0.2442329528678799,
                        0.26164787994695393,
                        -0.07925501036405894,
                        0.009370288548376243,
                        -0.261156637832142,
                        0.1942193029522781,
                        0.06373320807357705,
                        0.04176888214236995,
                        0.5374409592844356,
                        0.15315742442412006,
                        0.09671390614502226,
                        -0.4438183615071433,
                        0.085663937772667,
                        0.32150472055681284,
                        -0.2372737576510704,
                        -0.16012615080757903,
                        -0.1573553331381049,
                        0.26394341151014167,
                        -0.00921574643147215,
                        0.08776045058638123,
                        -0.015125000909070594,
                        0.18923224391763205,
                        -0.06315443062257695,
                        -0.14060471654850465,
                        -0.7697971035145822,
                        -0.14271198566631707,
                        0.051567945600732155,
                        0.2486839200205248,
                        -0.0783027791055784,
                        0.1254005333073015,
                        0.2943216569348917,
                        0.32017552464939714,
                        0.1306148779447056,
                        0.04692168401468036,
                        0.15614108007573563,
                        -0.21177519511888776,
                        0.10388371395057554,
                        -0.030689225451282685
                    ],
                    "Weights.size": 48
                },
                {
                    "InputBias": -0.14003238177977165,
                    "Weights": [
                        -0.1455314497981616,
                        -0.21714834273575187,
                        0.15343648696318904,
                        0.21672073677978632,
                        0.0633529441180509,
                        0.1644377093436644,
                        -0.07075905887708968,
                        0.08873844885259854,
                        0.003578498552665567,
                        -0.08249550681343928,
                        0.7890741944531204,
                        -0.04028956404128049,
                        -0.37190200634696235,
                        -0.07265373724283698,
                        -0.2159668882937386,
                        0.09515189365900692,
                        -0.27469532162836846,
                        -0.19239405887225644,
                        0.05528499368816161,
                        -0.08646327020886954,
                        0.205022027775795,
                        0.33716199263173663,
                        0.25222457105671897,
                        -0.12871317587238087,
                        -0.5649222053457306,
                        -0.1868874891186911,
                        -0.2752983753401977,
                        0.08925331963367382,
                        -0.4340498995213098,
                        0.12491536490622143,
                        0.3707900373837706,
                        -0.025201395860214377,
                        -0.32219024827700554,
                        -0.330651585394625,
                        0.17527807038667192,
                        0.16582331150666477,
                        0.09821794174296498,
                        0.08791356541742852,
                        0.15485038796056308,
                        -0.4484297595567286,
                        0.2316302777346945,
                        0.17525500254870385,
                        -0.18784358030486328,
                        -0.44676282477835905,
                        -0.05222894527500422,
                        0.5046567775112696,
                        -0.2782744452788088,
                        -0.12975318128053936
                    ],
                    "Weights.size": 48
                },
                {
                    "InputBias": -0.0292167119086615,
                    "Weights": [
                        -0.023767013953220756,
                        -0.2786597570891482,
                        0.0506574414567227,
                        -0.35829425182737046,
                        -0.47489824670511804,
                        -0.16050980217704763,
                        0.41453799456750046,
                        0.06790149570469176,
                        -0.2785758243716136,
                        -0.28308571912087926,
                        -0.36994375430958537,
                        0.039306084829442534,
                        -0.12512039973422664,
                        0.31845150252832455,
                        0.12990221706110833,
                        0.19014709128707646,
                        -0.21570060690825832,
                        -0.22738314366010756,
                        0.397624875171342,
                        0.049543201998565684,
                        -0.2195798835253769,
                        -0.021523311420446875,
                        -0.5308557840755452,
                        0.15898267128539836,
                        -0.23461219747240777,
                        0.07329002337616101,
                        -0.08202747215268383,
                        0.31808237088085906,
                        -0.20060146627340789,
                        -0.22654478846608847,
                        0.1938329667148349,
                        0.11097215814238964,
                        -0.36953817288528495,
                        -0.06403471770237287,
                        -0.19910643762904673,
                        -0.390833542498939,
                        0.238496135070083,
                        -0.16581908472765874,
                        -0.17292787863572442,
                        -0.09151053607704804,
                        -0.07645682221628113,
                        0.11906926905862682,
                        0.20144460988895085,
                        0.13147906083169458,
                        -0.2831636514910299,
                        -0.020366591423298455,
                        0.04059470549143909,
                        0.2918181477360635
                    ],
                    "Weights.size": 48
                },
                {
                    "InputBias": 0.22979660132314694,
                    "Weights": [
                        -0.7122789633263951,
                        0.2625104664251517,
                        0.08429328482966988,
                        -0.2217803388171661,
                        -0.2530468252530431,
                        0.10257689037120032,
                        0.06814490873057155,
                        -0.45763624354581084,
                        0.39693651226944976,
                        -0.20169630468378905,
                        0.47722979427816037,
                        -0.053219223566541546,
                        0.2717642527149289,
                        0.16154739350589506,
                        -0.33993442495317183,
                        -0.1299210708662515,
                        0.3485722643091258,
                        -0.12030253007014483,
                        -0.0905409434902473,
                        -0.08783114828472413,
                        -0.10688039488712436,
                        0.4664194813835676,
                        0.542536197626557,
                        0.17088296298952638,
                        -0.02202378143639111,
                        -0.42525751931559014,
                        -0.08349942203607846,
                        0.20995606287556312,
                        0.4388216246688098,
                        0.13449787577471492,
                        -0.19097261184432396,
                        0.306662591318529,
                        -0.22088399911038592,
                        1.1088654572870569,
                        0.12601090016859234,
                        -0.031733429035120386,
                        0.3212019876372204,
                        -0.1767332468677183,
                        -0.28141244778035585,
                        0.429692728142801,
                        0.36647481884719657,
                        0.5936081380651399,
                        -0.23482235557046113,
                        0.08068749805520198,
                        0.585534178629882,
                        0.2483680365260442,
                        0.4186902445723495,
                        -0.05049288378132303
                    ],
                    "Weights.size": 48
                },
                {
                    "InputBias": -0.07182226020081181,
                    "Weights": [
                        -0.16630011165062883,
                        -0.4365849521849696,
                        -0.6206307017454866,
                        -0.00921560325090683,
                        0.19801909729901318,
                        0.08756515389951053,
                        0.05497154456842118,
                        0.2145820861573836,
                        -0.2866372330830595,
                        -0.1397268255043938,
                        -0.38072960748953744,
                        -0.04867937303062719,
                        0.18352898402315365,
                        0.16412358161622884,
                        -0.509077734319779,
                        -0.2920902393637177,
                        -0.01481233848331719,
                        0.025478865863415745,
                        0.052628506997328565,
                        0.11554201804059261,
                        -0.11080917253465054,
                        0.3135660176914052,
                        -0.22706755329312805,
                        -0.0061444936196532185,
                        0.31004733393846723,
                        -0.029143058024912086,
                        0.1114575328682451,
                        -0.3279999484060912,
                        -0.10256613233785009,
                        0.19095542148876687,
                        0.24502790756628284,
                        -0.48567383390505575,
                        -0.12491752240048205,
                        -0.18877667585518276,
                        0.04866283482738245,
                        -0.17267918394854748,
                        -0.3384522880157907,
                        0.4154595491419353,
                        0.3187844152907097,
                        -0.7114551299308238,
                        -0.21637812380045945,
                        -0.0015381716149103358,
                        -0.17116795907227883,
                        -0.013610110665854297,
                        0.38522384694907885,
                        -0.45172346381845263,
                        -0.2507929934915519,
                        0.162873723916019
                    ],
                    "Weights.size": 48
                },
                {
                    "InputBias": -0.10362693517529492,
                    "Weights": [
                        -0.031849014794758095,
                        -0.014795299259757984,
                        -0.18792939149559365,
                        -0.3310003981514891,
                        0.2672393890225511,
                        -0.1189114328125936,
                        -0.15753794642920946,
                        -0.0049824354545332595,
                        0.3017247348368495,
                        -0.12749125609007694,
                        -0.22289936703173713,
                        0.3737611865078256,
                        0.11736239993371277,
                        0.3012356235846457,
                        -0.028751146478745507,
                        0.087578100056268,
                        0.26129033365364196,
                        -0.09775210728063413,
                        0.075527784545802,
                        0.32647536951379524,
                        -0.3112929283127958,
                        0.16634404771788758,
                        -0.062483972641776776,
                        -0.3237388919602808,
                        0.04706058376991204,
                        -0.3438588227089053,
                        -0.1946692573440007,
                        0.38187076586407254,
                        0.5371788878838812,
                        -0.20026703504863538,
                        -0.21875902935611935,
                        -0.18400185462363133,
                        0.26612102733611154,
                        -0.3776662566483147,
                        -0.19081595444368923,
                        -0.41688401361872646,
                        0.0024181154031624546,
                        0.768833915537833,
                        -0.010574521014693835,
                        -0.17907059734912545,
                        -0.18807543623358633,
                        0.12096482233305873,
                        0.3140043160852342,
                        -0.04028104373523307,
                        0.16231603093387145,
                        0.18068593270028385,
                        0.03811696201527481,
                        0.09912390168699324
                    ],
                    "Weights.size": 48
                },
                {
                    "InputBias": 0.027501769870092868,
                    "Weights": [
                        -0.2673590446983551,
                        0.29472953169884125,
                        0.553428152475267,
                        -0.15713603873376855,
                        -0.2835285996955361,
                        0.7157183040162691,
                        -0.20824571780121426,
                        -0.07994166697709035,
                        0.058264466765909635,
                        -0.25949817296771877,
                        0.38143043945883925,
                        -0.2588421742396757,
                        -0.3670692455118216,
                        0.09412714827966948,
                        0.03890757044895601,
                        0.19072590152711397,
                        -0.04580356916867644,
                        -0.2204851898178365,
                        0.21836164315468579,
                        0.12828802013643098,
                        -0.11897496768507396,
                        0.30852544960037476,
                        0.04338512274229753,
                        0.3293135264235581,
                        0.24672690866431457,
                        0.0910736301252167,
                        0.18799163571268804,
                        0.1169672302237347,
                        -0.0855252719415522,
                        -0.2488787414881716,
                        0.14281695121403154,
                        0.3783506815858772,
                        -0.1014713722633719,
                        0.3842979547977693,
                        -0.1472542632061277,
                        0.10209696756384008,
                        0.44597012899228,
                        -0.1698304622137716,
                        0.08634494485018603,
                        -0.000575578646457445,
                        -0.10092697708057967,
                        0.07365506429824217,
                        -0.2902067410501033,
                        -0.13401142983880898,
                        -0.0860915986897136,
                        0.12263422918044597,
                        0.3791177392134052,
                        -0.33963005674210217
                    ],
                    "Weights.size": 48
                },
                {
                    "InputBias": -0.2208667387174766,
                    "Weights": [
                        0.31769145569397444,
                        -0.011589953997206843,
                        0.635845031295026,
                        -0.3739393643741396,
                        -0.4695364980324521,
                        0.23500410268978714,
                        -0.19700933244820792,
                        -0.40673464844381757,
                        -0.29835012566025,
                        -0.2833270178897443,
                        -0.20027749719753063,
                        -0.4700866131090978,
                        0.022980918759072967,
                        0.4705013331952533,
                        0.06395585772878615,
                        -0.22127346268546855,
                        0.42061498039965334,
                        0.5310741980161809,
                        -0.08198962920602366,
                        -0.28981315004814956,
                        -0.36169555353915567,
                        1.0690079827009913,
                        -0.5840862684804831,
                        -0.16131098171946945,
                        0.012141249063749202,
                        0.3646112228290744,
                        0.13794160578253548,
                        -0.22127550913853117,
                        0.20908682096765674,
                        -0.42031158077950337,
                        0.2683319973053264,
                        -0.3620015379332303,
                        0.1234641657111969,
                        -0.6673110434673256,
                        -0.05581802525238866,
                        -0.24575830665328743,
                        -0.29595645882870303,
                        0.3257911344880076,
                        -0.09788253430138835,
                        0.1273950873148168,
                        -0.9066578639065097,
                        0.13122809724435228,
                        -0.011684808091111443,
                        -0.5482233052981228,
                        0.25095054457782656,
                        0.3193245510797632,
                        0.1639670778712544,
                        -0.27192977536865964
                    ],
                    "Weights.size": 48
                },
                {
                    "InputBias": -0.404521449262978,
                    "Weights": [
                        0.2727151006317289,
                        -0.1640638779491787,
                        -0.13032955413807745,
                        0.4116611570478765,
                        0.3836065929503847,
                        0.8321074090236743,
                        -0.010812536367223236,
                        -0.11716886653670594,
                        0.14195989653850316,
                        0.4579549965252292,
                        0.23526791621704599,
                        -0.36618866467248706,
                        0.7674061724933934,
                        -0.0007969580907355306,
                        -0.6956613051125295,
                        -0.576706071667412,
                        0.8183885339489638,
                        -0.1935462467529195,
                        0.11645316101216947,
                        0.502088487003834,
                        -0.07875782070656381,
                        0.06070523184318223,
                        0.6420687794006861,
                        -0.05562989633698817,
                        0.028836603132709582,
                        -0.10731962656809468,
                        -0.27871810805100505,
                        -0.35002872678322716,
                        -0.11201538620054984,
                        -0.23808366770879932,
                        0.7604491015496502,
                        0.5163558247772149,
                        0.14438691415755361,
                        -0.5234449556617845,
                        -0.026820675459514214,
                        0.28080853182153087,
                        0.11093074160341002,
                        0.2554488108507517,
                        0.20082722173395567,
                        -0.12345478305388419,
                        -0.13278850721681634,
                        0.19680626682996097,
                        0.508336497116867,
                        -0.07022616515938906,
                        -0.1173278405306107,
                        0.5932719948021293,
                        0.3430783197823288,
                        -0.05873375478213816
                    ],
                    "Weights.size": 48
                },
                {
                    "InputBias": -0.4375217979064302,
                    "Weights": [
                        -0.10685461835024623,
                        0.30239360141026883,
                        0.20181512310108396,
                        -4.928947812704587e-05,
                        -0.45360374452943175,
                        -0.3526367244475812,
                        0.15643535242895523,
                        -0.19225745275618644,
                        -0.2145447832384314,
                        0.4421440914818545,
                        -0.1531971264974359,
                        0.4847924315219359,
                        -0.1408706586884995,
                        -0.228555670771593,
                        -0.2622143559722223,
                        -0.2441948103212311,
                        0.1774607956806997,
                        0.4625107819704071,
                        -0.33517148512792494,
                        0.2599517999697039,
                        -0.0830399472189003,
                        -0.5388799683464193,
                        0.17190346455742286,
                        -0.19616348392048047,
                        -0.15387152501049667,
                        -0.04367250751918536,
                        0.03972528755264948,
                        -0.30037210532805003,
                        -0.0858321420684876,
                        0.04870697872689622,
                        0.16625494029865584,
                        0.8951144940623299,
                        -0.06317827264068943,
                        -0.06692245779087676,
                        -0.3219686688246778,
                        0.0323871244730823,
                        -0.596356252010383,
                        -0.24874268485608794,
                        0.6570911790153461,
                        0.04043851001309354,
                        -0.012240077707254812,
                        -0.21516128784454464,
                        0.25498978321668425,
                        0.051917394244780264,
                        -0.157018746666449,
                        -0.1290492376473744,
                        -0.2949230593005465,
                        0.0053731969265343425
                    ],
                    "Weights.size": 48
                },
                {
                    "InputBias": -0.003017565097676185,
                    "Weights": [
                        -0.09094942474978983,
                        -0.21665544654222782,
                        0.02514938643973447,
                        -0.07861785182922602,
                        0.33266039559487987,
                        0.20727125578723146,
                        -0.02262281774356006,
                        -0.5474414158756661,
                        0.007015129160361644,
                        0.17602022070655957,
                        0.17540707150569046,
                        0.14063505509452656,
                        -0.07883672199713851,
                        -0.2882220737824198,
                        0.24557878877598918,
                        -0.06241722472743033,
                        -0.14760680720444247,
                        -0.3898700837878432,
                        -0.037249912049522035,
                        -0.17559307631760201,
                        -0.13066322181968684,
                        -0.07164735943945495,
                        0.2407126581465357,
                        0.21423894568033963,
                        0.38987263367112046,
                        0.017048792268449648,
                        0.023199450095026417,
                        -0.3589697815440287,
                        0.05766931023591161,
                        -0.1261199984420117,
                        -0.0017344113276534575,
                        0.2776309876485596,
                        0.023564162936732566,
                        -0.3746388707464675,
                        0.19306570559181835,
                        -0.06159088317518532,
                        0.15454735754572604,
                        0.20291339195309485,
                        0.36433398562947994,
                        -0.143843181825499,
                        0.18264485915076567,
                        -0.09850878501378513,
                        0.2732903341296913,
                        0.310046658683231,
                        0.24356728784945358,
                        0.10943425576437199,
                        0.46556530518649336,
                        0.03377925555429791
                    ],
                    "Weights.size": 48
                },
                {
                    "InputBias": -0.44139472151860104,
                    "Weights": [
                        0.187306210347632,
                        0.7102096871401802,
                        -0.5229061777073716,
                        -0.3632871853666172,
                        -0.2687248015026267,
                        0.23978182672608483,
                        0.19314114227220297,
                        -0.16644556702896818,
                        0.15234295244167828,
                        -0.24351909214623907,
                        -0.5064809518374698,
                        0.10840699200851388,
                        0.37448012227569016,
                        -0.1348829219211181,
                        -0.09807963922647961,
                        -0.3132184154301315,
                        -0.22194812493519991,
                        0.2090362967147118,
                        0.6555380064891108,
                        0.4560867782151008,
                        -0.02409028550483358,
                        -0.2088107021565392,
                        -0.2014777515184026,
                        -0.05464051358041962,
                        0.16797861058914282,
                        0.6080331057096078,
                        -0.5850085571355896,
                        0.29642908214617525,
                        0.25733620775379373,
                        0.07201241768344174,
                        -0.19175050505016045,
                        -0.06127973168185222,
                        0.722270569694683,
                        -0.05441354473294588,
                        -0.49055346657016086,
                        -0.661603995052372,
                        0.08946637893673029,
                        -0.10760399337975719,
                        -0.05471882693163621,
                        -0.024750790917349136,
                        -0.08705339344120268,
                        -0.6719270365714938,
                        0.022702126418533225,
                        0.3657135530367045,
                        -0.18492026432497974,
                        0.20518752883014527,
                        0.17504115538066542,
                        -0.2613426085290228
                    ],
                    "Weights.size": 48
                },
                {
                    "InputBias": 0.249662138370922,
                    "Weights": [
                        0.13823151458388902,
                        -0.07726310212287857,
                        0.05120250590203984,
                        -0.04507340267731512,
                        -0.36193149711095435,
                        -0.28863522221102733,
                        -0.35927528538602155,
                        -0.40307531928461715,
                        -0.17546470076832626,
                        0.22942667959060847,
                        -0.40641082041064575,
                        -1.0840857460228386,
                        -0.3927779965891579,
                        0.19550695809602764,
                        0.09283904866534207,
                        -0.10441444633398086,
                        -0.48819073604433555,
                        0.061309957704190655,
                        0.42590149373047703,
                        0.2891832556323365,
                        -0.33746457347037107,
                        0.644775686394422,
                        0.2834484457136225,
                        -0.04380940906238261,
                        0.11094681881426705,
                        0.16882031767749844,
                        0.1407403665257567,
                        0.06670550711807946,
                        0.24018128351162674,
                        0.19731743059742107,
                        1.0420155299228266,
                        0.44359876076194377,
                        0.011540559812248143,
                        0.8523576178637416,
                        -0.06545622465378864,
                        -0.3270535695044595,
                        -0.28433831939060406,
                        0.004925969552173698,
                        0.028515498107857463,
                        0.7265367234030246,
                        -0.7063381934774992,
                        -0.048598142396606314,
                        -0.11937703871032668,
                        0.0991912294514525,
                        0.54518595035586,
                        -0.42791490779939,
                        -0.032335400199613784,
                        -0.23223215991075166
                    ],
                    "Weights.size": 48
                },
                {
                    "InputBias": 0,
                    "Weights": [
                        0.11399579311096554,
                        0.010288835639506472,
                        0.2554567739000578,
                        -0.29163259023351523,
                        -0.37866336514265664,
                        -0.2170225855309947,
                        0.14061249050672459,
                        -0.21749929765114406,
                        0.2040855022334672,
                        0.20679794282601754,
                        0.2068420742836159,
                        0.2428699183898012,
                        -0.22701030931768243,
                        -0.10973851051461382,
                        -0.02786791760144666,
                        0.03466169063858244,
                        -0.1695790440876145,
                        0.039655490501175505,
                        0.16060351951992438,
                        0.3497330271505036,
                        -0.47112714305388065,
                        0.056438255599990154,
                        0.3366318036686489,
                        -0.0024074131142484156,
                        0.005701087281397419,
                        0.1076861560593539,
                        0.38136528736083575,
                        0.10083377501633171,
                        0.08349162643265039,
                        0.08084076396915395,
                        0.16021748103008954,
                        -0.05248720222747635,
                        -0.017770542167805294,
                        -0.38166883775442384,
                        0.1493781256785853,
                        -0.22039964006719087,
                        0.1988865584342083,
                        -0.10983646680240772,
                        -0.22004164420260203,
                        0.16015147559048173,
                        -0.1022342519095206,
                        0.08942907525471448,
                        -0.000976151937309485,
                        -0.1756511013735865,
                        0.047284975495815826,
                        0.11735003290882016,
                        0.28702384946142645,
                        0.050292884264057355
                    ],
                    "Weights.size": 48
                },
                {
                    "InputBias": -0.04048471926023131,
                    "Weights": [
                        0.09983941991272145,
                        -0.2721192388935624,
                        -0.281000404276407,
                        0.1753708506059808,
                        0.6006668942989741,
                        0.05575273001558241,
                        0.06033670036017512,
                        -0.2115642357164083,
                        0.0020883478354487045,
                        -0.1090054397970443,
                        -0.04282611735333137,
                        0.048868427430696464,
                        -0.22385749471153799,
                        0.004473455836212164,
                        0.3692118583243792,
                        -0.031239036919343904,
                        0.3363435860393876,
                        -0.1906217333938038,
                        0.26094472447519573,
                        -0.08134834612764495,
                        -0.04863689968487617,
                        0.015948391104550624,
                        -0.23504420435827794,
                        0.4481415106473047,
                        0.31330398428220735,
                        0.060189168129081844,
                        0.2875956849106524,
                        0.22300615333496468,
                        -0.09401393030211028,
                        -0.1793269870661086,
                        0.1807649649521755,
                        0.07150498165104294,
                        0.1590425455054137,
                        -0.17159320408967213,
                        -0.14023704746889962,
                        -0.24211199296777833,
                        -0.2103880311285383,
                        -0.02162103843994358,
                        0.478400270209631,
                        0.24680568508518752,
                        0.2924227958243754,
                        0.5571316211688647,
                        0.04765546214210416,
                        0.015124708929418869,
                        0.08630731911116911,
                        0.16419978022341317,
                        -0.02833500557800989,
                        -0.07658918690779831
                    ],
                    "Weights.size": 48
                },
                {
                    "InputBias": -0.3069717610197251,
                    "Weights": [
                        0.14966965158593704,
                        0.07741996775149895,
                        -0.11297267598883481,
                        0.016588101147987373,
                        -0.09778437433780501,
                        -0.5110138531307106,
                        -0.37972116729538113,
                        -0.09920207056096358,
                        -0.0560553878752958,
                        0.16903825023705868,
                        -0.26137114414466234,
                        -0.04438488116022195,
                        0.031486168490816736,
                        -0.1400331218353189,
                        0.0624588187232969,
                        -0.10953082570198909,
                        -0.15784969780108732,
                        0.1772080838344026,
                        0.14330256351464063,
                        0.11342347716650097,
                        0.10088377196361757,
                        0.27517939579026307,
                        -0.4068352214754857,
                        0.23457030060126172,
                        -0.5134396200788975,
                        -0.38173437021860396,
                        0.0670814806809407,
                        -0.05203072036486992,
                        -0.06277373989486223,
                        -0.07734000043560008,
                        -0.26107821293045774,
                        -0.46240349897952787,
                        0.028917055456581596,
                        -0.24724727062085952,
                        0.23916298164614558,
                        0.08344824740505678,
                        0.23099692064006408,
                        -0.15229549013765,
                        0.09480390173733824,
                        -0.2688899016561509,
                        -0.025127965453549835,
                        -0.14652715770637936,
                        0.1660869979348386,
                        0.12383125673374991,
                        0.4396138172841529,
                        -0.36856672799260826,
                        -0.3166418742342892,
                        0.04497068579850114
                    ],
                    "Weights.size": 48
                },
                {
                    "InputBias": 0.15200074169472677,
                    "Weights": [
                        0.47257277912275275,
                        -0.13977577987377088,
                        0.06589510232604545,
                        -0.1978548008530952,
                        -0.06727055609761647,
                        0.3861311733068189,
                        0.10489902447878818,
                        0.07785946003175773,
                        -0.40699801997348545,
                        -0.3613036827154428,
                        -0.019791641906385604,
                        -0.0393189709091708,
                        -0.07950466980987732,
                        -0.33083427309519114,
                        -0.34100081033719265,
                        0.09171895593642028,
                        -0.3175869616915364,
                        0.25303506521074864,
                        0.3816908582826509,
                        -0.08205954614472435,
                        -0.30730927174726375,
                        0.042972011164644636,
                        0.07161081820200033,
                        0.028723885219908596,
                        -0.14418490781143006,
                        0.003422605358927,
                        -0.14350101370188512,
                        -0.1922751347690614,
                        -0.21108942526539898,
                        -0.01272047546873175,
                        0.18758626928220562,
                        0.3016369314409589,
                        0.094038323178394,
                        -0.22189673619195863,
                        -0.08542249700387437,
                        0.18517211878085807,
                        -0.579800243132035,
                        0.2378978383439461,
                        -0.24359886263888278,
                        0.1612739305342157,
                        -0.017395169274075112,
                        0.4515032039864819,
                        0.14452190553714495,
                        -0.017289452658217574,
                        0.022594675843296386,
                        0.051313337882049156,
                        0.24467444065794272,
                        -0.13930486514892731
                    ],
                    "Weights.size": 48
                },
                {
                    "InputBias": -0.36869462075326465,
                    "Weights": [
                        -0.10964144820399838,
                        -0.2403572404714423,
                        -0.10486646513609264,
                        0.11528654578647138,
                        0.030203476479940133,
                        0.20371137900578407,
                        -0.3356816577450931,
                        0.8575617580176639,
                        -0.057432384672345106,
                        -0.37097577425287964,
                        0.08058668234556922,
                        0.0417993600615012,
                        -0.011332556810672106,
                        -0.06696823461966664,
                        -0.25793742660623253,
                        -0.34189764412807,
                        -0.3539524288182216,
                        0.18610867134299863,
                        0.13152227294632515,
                        0.5437048632929515,
                        0.4868330871242277,
                        0.13224252503233785,
                        0.0746713844728217,
                        0.2818486407156836,
                        0.21545610424515182,
                        -0.14664068766796917,
                        -0.4434204296971883,
                        -0.24689577314682729,
                        -0.30337903086399276,
                        0.5163316381506524,
                        -0.4714943419074824,
                        -0.036061127512998094,
                        -0.16515203422929964,
                        0.20861088469707692,
                        0.19654388831387679,
                        -0.5236138034226671,
                        -0.07476181602408231,
                        -0.11721596049925893,
                        -0.33617364938884436,
                        0.3440857885753334,
                        -0.1636487892577883,
                        0.5045088634611642,
                        -0.5327177384350408,
                        0.040976133380087265,
                        -0.2779083967715949,
                        0.008955566462212877,
                        0.17932810596826626,
                        0.0016872017523179364
                    ],
                    "Weights.size": 48
                },
                {
                    "InputBias": 0,
                    "Weights": [
                        0.14553186704406942,
                        -0.17698701396054306,
                        -0.02130951472956783,
                        -0.013136481144540739,
                        -0.124919025044837,
                        0.2631683839283422,
                        0.3851398648653768,
                        0.10263398824084288,
                        -0.4298078583838966,
                        0.15155168410213157,
                        -0.2620242033599282,
                        0.10541322010797094,
                        -0.22138731545639734,
                        -0.164286988051673,
                        -0.11858540785928189,
                        0.2945964919049024,
                        0.06691089006033561,
                        -0.30244298661552355,
                        -0.19822062508501895,
                        -0.06276642113464365,
                        -0.183967276752532,
                        0.01058253611480497,
                        0.18473712427815056,
                        -0.19287158717957525,
                        -0.47455330036101373,
                        -0.16433756004865993,
                        -0.049035458612267595,
                        0.10291969481614736,
                        -0.11355434783889398,
                        -0.23504165344846825,
                        0.587237119456421,
                        0.36258171586869237,
                        0.40931350692816726,
                        0.05127171302649325,
                        -0.04487320718842717,
                        0.524888502330382,
                        -0.3512212719958344,
                        0.35872536105731134,
                        -0.24222311748443665,
                        0.33231846493910217,
                        0.030169946637266288,
                        -0.10188844317135937,
                        0.08223015395095032,
                        -0.2790604691352742,
                        -0.22383537264728662,
                        -0.166095042957059,
                        0.21975169349348941,
                        0.21518291151909485
                    ],
                    "Weights.size": 48
                },
                {
                    "InputBias": -0.17685558582991698,
                    "Weights": [
                        0.1855394955728455,
                        0.30311243697842827,
                        -0.6558435859301732,
                        -0.3585866744659242,
                        -0.017407635441950148,
                        0.23137520033821538,
                        0.47137824296650116,
                        -0.04634204660059757,
                        0.17322650337422557,
                        -0.009241120853139634,
                        -0.07135797516521286,
                        -0.0059237329316637125,
                        0.011484471667952623,
                        -0.06083259379789839,
                        -0.41007671893007014,
                        -0.024499662656611104,
                        0.0383085991156204,
                        -0.271108525199282,
                        0.2252496544676436,
                        0.3846084652928169,
                        0.12048863845923267,
                        0.051609413068336746,
                        0.1461424409914104,
                        -0.08058529670590109,
                        -0.3339230468619805,
                        -0.3629859950417186,
                        -0.04607968300759773,
                        0.2927584542120524,
                        0.07577032086448546,
                        0.44458076354829196,
                        -0.17699028988151375,
                        0.16377447281519944,
                        0.09393075561779321,
                        0.18608203125393807,
                        -0.2419510612363498,
                        -0.06110750879081629,
                        -0.25021005076301844,
                        -0.032974167354789724,
                        -0.26519739019170363,
                        0.08539959770827521,
                        -0.24111316609560599,
                        -0.0635309534522903,
                        -0.266025367784505,
                        -0.3758377290704681,
                        0.1920271226176328,
                        -0.050461494843437774,
                        0.15901080535323422,
                        0.06344275329172791
                    ],
                    "Weights.size": 48
                },
                {
                    "InputBias": 0.018076316443033813,
                    "Weights": [
                        -0.08779358887026048,
                        -0.15626659758071115,
                        0.19430195402937211,
                        0.5225108726188563,
                        -0.20191017808332776,
                        0.060167323873143476,
                        0.16891247711884172,
                        0.12707368038774153,
                        -0.04256178491779206,
                        0.21309200752679283,
                        -0.027450567268216056,
                        -0.3346385488018556,
                        0.29189658474251345,
                        0.06039516604984541,
                        -0.0783219774710164,
                        -0.4238290793756095,
                        0.22904268887015186,
                        0.0008454771433741848,
                        -0.0690655393008941,
                        -0.48185331477984983,
                        -0.12777704095276057,
                        0.23986785041133968,
                        0.0066515920760180786,
                        0.1459793838977951,
                        -0.18373575190011504,
                        0.06282272629583474,
                        0.008002784990135854,
                        -0.5971453744918863,
                        -0.026841645050186796,
                        -0.10043234572921336,
                        0.22882573606446419,
                        -0.7753671283242383,
                        -0.31334766214340637,
                        0.015065483591006096,
                        0.21790948490570788,
                        0.3310527981056142,
                        -0.10249118385075107,
                        -0.21354309454576187,
                        0.03701193260075256,
                        -0.07682688475382472,
                        0.1905511535676482,
                        -0.07570484044806017,
                        0.2969344614760557,
                        -0.42279979209521357,
                        0.16189064585456028,
                        0.10676871137249423,
                        -0.18223771042019124,
                        -0.0012253386526110965
                    ],
                    "Weights.size": 48
                },
                {
                    "InputBias": 0.018059865515101577,
                    "Weights": [
                        0.13303990302984903,
                        0.3726351589143982,
                        0.04170877625854447,
                        -0.2409863483892626,
                        0.32595590016993947,
                        -0.24576451093288437,
                        -0.013382245875918075,
                        0.47067599083454587,
                        0.1619184786325696,
                        0.32433801300038273,
                        -0.28874654191356514,
                        0.2327438853142116,
                        0.21464684642796444,
                        -0.1003801271518125,
                        0.07357853623341033,
                        -0.052330717192097496,
                        0.2715081188071526,
                        0.243889789738695,
                        -0.38748141725689866,
                        0.20515365434573946,
                        0.15014590895640287,
                        -0.19359160024572308,
                        -0.2820171819066277,
                        -0.15659577291305518,
                        -0.40705108053830635,
                        -0.17224222436521489,
                        -0.4225411547501313,
                        -0.06388838303153184,
                        -0.13646443488342977,
                        0.3820294859610007,
                        0.08233982352627506,
                        -0.024663936158785163,
                        -0.33843379714263566,
                        0.35432147926067203,
                        -0.1594702713611328,
                        -0.08383800955435808,
                        0.16013770868056165,
                        0.09657345449389941,
                        0.10643043795503454,
                        0.10819655397476587,
                        -0.03158891606541144,
                        -0.26367961595937883,
                        -0.360144128118108,
                        -0.2474431389694994,
                        0.24805273725699495,
                        0.18633876493394708,
                        0.09513250538846303,
                        -0.24186701933000598
                    ],
                    "Weights.size": 48
                },
                {
                    "InputBias": -0.1622425000762963,
                    "Weights": [
                        -0.3870009695886934,
                        0.2726747953490518,
                        0.0742090841399089,
                        0.07502153811024415,
                        0.03300324117404173,
                        -0.0914155304254634,
                        0.22673272177089515,
                        0.0459831377424639,
                        -0.2374181355521907,
                        -0.5085651563593453,
                        0.1338617984767474,
                        0.21648024304953623,
                        0.5866751315272212,
                        -0.24493656542038197,
                        -0.1707940852517545,
                        -0.05669196361584075,
                        0.320020147247044,
                        0.30574780151103276,
                        0.04678993908668589,
                        -0.3711598423729672,
                        0.21853237678084542,
                        -0.4656683738921356,
                        -0.24604858196353904,
                        0.013985857283839317,
                        0.0973989080739377,
                        0.0026397800258313314,
                        -0.5362532980273199,
                        -0.3947482021072765,
                        -0.03745701828483344,
                        0.04110442989796772,
                        0.2960617471329551,
                        -0.1999069333704291,
                        -0.3524403014506639,
                        0.1494542372336353,
                        -0.5503365870705421,
                        -0.23309218432542944,
                        0.11243227055014776,
                        -0.1977278899241563,
                        0.16924610547586816,
                        -0.0442068922155946,
                        0.03382358495261037,
                        -0.15781388610548894,
                        0.003581692941340156,
                        0.14076238003304278,
                        -0.13087462051859755,
                        0.018578927437712743,
                        -0.2912692408462091,
                        -0.014451654304934058
                    ],
                    "Weights.size": 48
                },
                {
                    "InputBias": 0.06359804364146858,
                    "Weights": [
                        -0.09695691655093194,
                        0.12393221054017925,
                        0.025715321777194076,
                        0.16162314079217077,
                        -0.07485845782604678,
                        -0.07741668270544395,
                        0.07480481358092429,
                        0.08847426238337375,
                        -0.2870216203497014,
                        -0.38905109710346647,
                        -0.11720173163683287,
                        0.5750427875042805,
                        -0.242834799558712,
                        -0.21019186659627825,
                        -0.22424201989045364,
                        -0.023606057619880473,
                        0.10136491963624872,
                        -0.06228054607339224,
                        -0.10136497613716022,
                        -0.1040425515846864,
                        0.08517298271879947,
                        0.5632080268524776,
                        0.13309439994912864,
                        -0.22117430678567168,
                        0.2606702566189392,
                        0.22902687340132738,
                        -0.4163278680020557,
                        -0.11780334390501804,
                        0.32278699326609744,
                        -0.49024396702461887,
                        0.10764300790810533,
                        0.3128732869677229,
                        -0.3303380936900839,
                        0.33036657132285213,
                        -0.2657677209514033,
                        -0.1135359963217435,
                        -0.0550661613013827,
                        0.06054892036800172,
                        -0.23605480679233443,
                        -0.16894902571422876,
                        -0.21749394328970348,
                        0.11482042375117427,
                        0.2567153622013921,
                        -0.40614998576581324,
                        -0.1348495556366539,
                        -0.20273337435127708,
                        0.1852296424620595,
                        0.07636587358212057
                    ],
                    "Weights.size": 48
                },
                {
                    "InputBias": 0.16047517814332174,
                    "Weights": [
                        0.18577500159847724,
                        -0.27196771164855754,
                        -0.006431876669197394,
                        0.33564618938789187,
                        0.3837723304390585,
                        -0.09490273759814541,
                        0.17909565799854332,
                        0.025735852455191853,
                        0.4262573343059959,
                        0.3134878114318264,
                        0.16573116150900571,
                        -0.27643434334802985,
                        0.4883276703935071,
                        -0.23479901329541517,
                        -0.17034895997047292,
                        0.17968867139057176,
                        -0.04909527566503822,
                        0.644408188557456,
                        0.05906776300285807,
                        0.061747212150754224,
                        0.008692009079774216,
                        -0.1802903452362271,
                        -0.03376468893323127,
                        -0.1882876228004528,
                        -0.2276235796014201,
                        -0.038702995109377775,
                        0.08807831373574714,
                        -0.6406275768166259,
                        0.21231605702917292,
                        -0.0512357164290706,
                        -0.15411687930363777,
                        0.042677569306202784,
                        0.19070915110115363,
                        0.30298681770714475,
                        0.26582044059685916,
                        -0.039899609824159826,
                        0.07904643360786846,
                        0.026652980397152855,
                        -0.2763959930507253,
                        -0.17802379834916765,
                        0.1990252580845768,
                        0.5263501525942382,
                        0.15218328950359786,
                        -0.4418743619028495,
